{"learner":{"attributes":{"scikit_learn":"{\"_estimator_type\": \"classifier\"}"},"feature_names":["dist_ema9","dist_ema21","dist_ema50","dist_ema200","macd_hist_pct","macd_line_pct","atr_pct","rsi","obv_roc","volume_roc"],"feature_types":["float","float","float","float","float","float","float","float","float","float"],"gradient_booster":{"model":{"cats":{"enc":[],"feature_segments":[],"sorted_idx":[]},"gbtree_model_param":{"num_parallel_tree":"1","num_trees":"200"},"iteration_indptr":[0,1,2,3,4,5,6,7,8,9,10,11,12,13,14,15,16,17,18,19,20,21,22,23,24,25,26,27,28,29,30,31,32,33,34,35,36,37,38,39,40,41,42,43,44,45,46,47,48,49,50,51,52,53,54,55,56,57,58,59,60,61,62,63,64,65,66,67,68,69,70,71,72,73,74,75,76,77,78,79,80,81,82,83,84,85,86,87,88,89,90,91,92,93,94,95,96,97,98,99,100,101,102,103,104,105,106,107,108,109,110,111,112,113,114,115,116,117,118,119,120,121,122,123,124,125,126,127,128,129,130,131,132,133,134,135,136,137,138,139,140,141,142,143,144,145,146,147,148,149,150,151,152,153,154,155,156,157,158,159,160,161,162,163,164,165,166,167,168,169,170,171,172,173,174,175,176,177,178,179,180,181,182,183,184,185,186,187,188,189,190,191,192,193,194,195,196,197,198,199,200],"tree_info":[0,0,0,0,0,0,0,0,0,0,0,0,0,0,0,0,0,0,0,0,0,0,0,0,0,0,0,0,0,0,0,0,0,0,0,0,0,0,0,0,0,0,0,0,0,0,0,0,0,0,0,0,0,0,0,0,0,0,0,0,0,0,0,0,0,0,0,0,0,0,0,0,0,0,0,0,0,0,0,0,0,0,0,0,0,0,0,0,0,0,0,0,0,0,0,0,0,0,0,0,0,0,0,0,0,0,0,0,0,0,0,0,0,0,0,0,0,0,0,0,0,0,0,0,0,0,0,0,0,0,0,0,0,0,0,0,0,0,0,0,0,0,0,0,0,0,0,0,0,0,0,0,0,0,0,0,0,0,0,0,0,0,0,0,0,0,0,0,0,0,0,0,0,0,0,0,0,0,0,0,0,0,0,0,0,0,0,0,0,0,0,0,0,0,0,0,0,0,0,0],"trees":[{"base_weights":[5.131937E-3,7.753317E-2,-6.1859235E-2,6.3765585E-2,2.5318843E-1,-2.3687436E-1,-2.5081139E-2,5.8935616E-2,3.5005963E-1,4.2851642E-1,7.025726E-2,-2.5303483E-1,3.7854898E-1,-8.013642E-3,-3.0161035E-1,-7.0031616E-3,7.28644E-2,-1.4858881E0,4.5239025E-1,5.07145E-1,-9.975338E-2,1.6804942E-1,-2.9318276E-1,-2.041061E-1,-4.9476388E-1,1.394309E-2,6.6137767E-1,-2.0919776E-1,1.9947208E-2,-4.612433E-1,9.262043E-2,-4.8763654E-3,6.9129863E-3,5.5469517E-3,1.1380607E-3,-2.345785E-2,-8.939406E-2,3.078696E-2,1.0078506E-2,-2.275084E-2,2.6488412E-2,1.8694779E-2,-2.057508E-2,1.2155815E-2,-1.1513344E-2,-2.7666885E-2,-5.5691707E-3,-7.927389E-2,-1.0058681E-2,-4.9296737E-2,-2.0140035E-2,1.9530512E-2,-1.5381138E-2,3.884283E-2,-6.142957E-2,-1.2002925E-2,1.0019357E-2,1.2520007E-3,-1.2216117E-2,-1.9939875E-2,-5.1010396E-2,1.1195711E-2,-2.7703214E-2],"categories":[],"categories_nodes":[],"categories_segments":[],"categories_sizes":[],"default_left":[0,0,0,0,0,0,0,0,0,0,0,0,0,0,0,0,0,0,0,0,0,0,0,0,0,0,0,0,0,0,0,0,0,0,0,0,0,0,0,0,0,0,0,0,0,0,0,0,0,0,0,0,0,0,0,0,0,0,0,0,0,0,0],"id":0,"left_children":[1,3,5,7,9,11,13,15,17,19,21,23,25,27,29,31,33,35,37,39,41,43,45,47,49,51,53,55,57,59,61,-1,-1,-1,-1,-1,-1,-1,-1,-1,-1,-1,-1,-1,-1,-1,-1,-1,-1,-1,-1,-1,-1,-1,-1,-1,-1,-1,-1,-1,-1,-1,-1],"loss_changes":[2.7524213E2,6.5938934E1,1.8971866E2,3.495276E1,6.3535194E1,5.100003E1,1.14959274E2,2.2845451E1,7.9468124E1,4.2077103E1,3.45642E1,5.889386E1,1.3537146E1,1.2906534E2,8.915254E1,5.706793E1,3.9172554E1,6.031639E0,1.6183777E1,1.9414948E1,1.96331E1,2.2955175E1,9.693806E0,1.6492126E1,3.749826E1,7.1946316E0,1.7095592E1,3.5436058E1,2.7117954E1,3.477832E1,3.484522E1,0E0,0E0,0E0,0E0,0E0,0E0,0E0,0E0,0E0,0E0,0E0,0E0,0E0,0E0,0E0,0E0,0E0,0E0,0E0,0E0,0E0,0E0,0E0,0E0,0E0,0E0,0E0,0E0,0E0,0E0,0E0,0E0],"parents":[2147483647,0,0,1,1,2,2,3,3,4,4,5,5,6,6,7,7,8,8,9,9,10,10,11,11,12,12,13,13,14,14,15,15,16,16,17,17,18,18,19,19,20,20,21,21,22,22,23,23,24,24,25,25,26,26,27,27,28,28,29,29,30,30],"right_children":[2,4,6,8,10,12,14,16,18,20,22,24,26,28,30,32,34,36,38,40,42,44,46,48,50,52,54,56,58,60,62,-1,-1,-1,-1,-1,-1,-1,-1,-1,-1,-1,-1,-1,-1,-1,-1,-1,-1,-1,-1,-1,-1,-1,-1,-1,-1,-1,-1,-1,-1,-1,-1],"split_conditions":[1.5693947E-4,1.4472787E-1,-6.72335E-2,7.9389596E-1,-2.8218746E0,1.382248E0,7.3160124E-1,2.2390245E-1,-1.6057941E-1,1.8728942E0,9.669864E-1,1.3475863E0,3.8632221E0,-6.492108E-2,9.669864E-1,-2.213502E-1,4.7779948E-1,3.5301176E-1,-5.564714E-1,-1.0086784E1,2.0016956E-1,-4.3265745E-1,2.6046345E-1,-8.905084E-1,-2.0985141E-1,-1.1517528E0,3.0177493E0,2.5641787E0,1.6867697E0,1.2507726E0,5.023608E-1,-4.8763654E-3,6.9129863E-3,5.5469517E-3,1.1380607E-3,-2.345785E-2,-8.939406E-2,3.078696E-2,1.0078506E-2,-2.275084E-2,2.6488412E-2,1.8694779E-2,-2.057508E-2,1.2155815E-2,-1.1513344E-2,-2.7666885E-2,-5.5691707E-3,-7.927389E-2,-1.0058681E-2,-4.9296737E-2,-2.0140035E-2,1.9530512E-2,-1.5381138E-2,3.884283E-2,-6.142957E-2,-1.2002925E-2,1.0019357E-2,1.2520007E-3,-1.2216117E-2,-1.9939875E-2,-5.1010396E-2,1.1195711E-2,-2.7703214E-2],"split_indices":[3,4,4,2,3,6,5,6,4,6,6,2,3,5,6,3,6,5,3,3,1,3,4,5,4,2,8,3,1,5,4,0,0,0,0,0,0,0,0,0,0,0,0,0,0,0,0,0,0,0,0,0,0,0,0,0,0,0,0,0,0,0,0],"split_type":[0,0,0,0,0,0,0,0,0,0,0,0,0,0,0,0,0,0,0,0,0,0,0,0,0,0,0,0,0,0,0,0,0,0,0,0,0,0,0,0,0,0,0,0,0,0,0,0,0,0,0,0,0,0,0,0,0,0,0,0,0,0,0],"sum_hessian":[5.674611E4,2.7271771E4,2.947434E4,2.5290875E4,1.9808967E3,5.1173027E3,2.4357037E4,2.4872467E4,4.184091E2,1.0107828E3,9.701139E2,4.986939E3,1.3036382E2,2.294207E4,1.4149651E3,4.337807E3,2.053466E4,2.1375933E1,3.9703317E2,8.798625E2,1.3092026E2,7.6485034E2,2.0526355E2,4.148982E3,8.3795715E2,5.740719E1,7.2956635E1,2.798659E3,2.0143412E4,1.0070271E3,4.0793802E2,2.6726243E3,1.665183E3,1.1667231E4,8.867428E3,5.479944E0,1.5895988E1,2.395616E2,1.5747156E2,1.9773788E1,8.6008875E2,5.1887135E1,7.903312E1,6.4389185E2,1.20958496E2,8.359515E1,1.2166839E2,7.645989E0,4.141336E3,1.3061708E2,7.073401E2,2.6339556E1,3.1067633E1,6.9310646E1,3.645989E0,2.60295E3,1.9570897E2,1.9763451E4,3.7996133E2,9.073718E2,9.965532E1,3.396367E2,6.830131E1],"tree_param":{"num_deleted":"0","num_feature":"10","num_nodes":"63","size_leaf_vector":"1"}},{"base_weights":[-1.6167924E-3,6.684806E-2,-6.487784E-2,4.9957108E-2,2.7917382E-1,-2.546107E-1,-3.4064975E-2,4.467899E-2,3.2054418E-1,5.1597923E-1,1.6399115E-1,-2.7038667E-1,6.7139757E-1,-1.602044E-2,-3.8043138E-1,2.1702644E-1,3.631079E-2,-8.4871966E-1,4.4478303E-1,5.829731E-1,-2.2445557E-1,2.0018394E-1,-4.702988E-1,-2.045915E-1,-4.8676947E-1,2.6465842E-1,1.1718425E0,-2.261537E-1,9.386009E-3,-9.642582E-2,-4.6976295E-1,-3.8970646E-2,1.23000285E-2,2.7722807E-3,-2.1019243E-3,-8.58864E-3,-7.858048E-2,-2.2696308E-3,2.8738722E-2,-3.4218181E-3,3.2634526E-2,-2.7892059E-2,3.2903787E-2,4.0113878E-2,8.340176E-3,2.3167129E-3,-3.446332E-2,-1.2042389E-2,1.2106013E-3,-4.232295E-2,-1.988935E-2,-6.2215417E-3,6.317698E-2,7.584734E-2,3.997994E-2,-1.300248E-2,5.6444574E-3,1.0270091E-3,-1.1853386E-2,-9.689585E-3,2.7478427E-2,-5.729302E-3,-2.636066E-2],"categories":[],"categories_nodes":[],"categories_segments":[],"categories_sizes":[],"default_left":[0,0,0,0,0,0,0,0,0,0,0,0,0,0,0,0,0,0,0,0,0,0,0,0,0,0,0,0,0,0,0,0,0,0,0,0,0,0,0,0,0,0,0,0,0,0,0,0,0,0,0,0,0,0,0,0,0,0,0,0,0,0,0],"id":1,"left_children":[1,3,5,7,9,11,13,15,17,19,21,23,25,27,29,31,33,35,37,39,41,43,45,47,49,51,53,55,57,59,61,-1,-1,-1,-1,-1,-1,-1,-1,-1,-1,-1,-1,-1,-1,-1,-1,-1,-1,-1,-1,-1,-1,-1,-1,-1,-1,-1,-1,-1,-1,-1,-1],"loss_changes":[2.4667595E2,9.808063E1,1.7305011E2,3.6172596E1,5.488565E1,6.0596924E1,1.5916496E2,3.5837467E1,7.077748E1,3.2821503E1,3.1253746E1,5.7802277E1,1.3849422E1,1.2923843E2,3.1947617E1,3.3413147E1,3.5539803E1,2.2676514E1,2.7981392E1,2.7503311E1,1.666781E1,2.568732E1,8.354261E0,2.5891632E1,2.9991516E1,1.5573511E1,2.7561722E0,3.0037155E1,5.9375065E1,1.9164118E1,1.9508514E1,0E0,0E0,0E0,0E0,0E0,0E0,0E0,0E0,0E0,0E0,0E0,0E0,0E0,0E0,0E0,0E0,0E0,0E0,0E0,0E0,0E0,0E0,0E0,0E0,0E0,0E0,0E0,0E0,0E0,0E0,0E0,0E0],"parents":[2147483647,0,0,1,1,2,2,3,3,4,4,5,5,6,6,7,7,8,8,9,9,10,10,11,11,12,12,13,13,14,14,15,15,16,16,17,17,18,18,19,19,20,20,21,21,22,22,23,23,24,24,25,25,26,26,27,27,28,28,29,29,30,30],"right_children":[2,4,6,8,10,12,14,16,18,20,22,24,26,28,30,32,34,36,38,40,42,44,46,48,50,52,54,56,58,60,62,-1,-1,-1,-1,-1,-1,-1,-1,-1,-1,-1,-1,-1,-1,-1,-1,-1,-1,-1,-1,-1,-1,-1,-1,-1,-1,-1,-1,-1,-1,-1,-1],"split_conditions":[1.5693947E-4,1.4472787E-1,-8.063925E-2,3.3459142E-1,-1.0508841E0,1.5692177E0,7.387169E1,2.626709E1,-1.6057941E-1,-2.5438464E0,1.8728942E0,3.8354433E-1,-1.6333322E-1,-7.878121E-2,3.68065E-1,-1.0086784E1,6.0881656E-1,5.972392E-1,5.7903564E-1,-1.0086784E1,2.2926976E-1,4.3006065E-1,-2.3157105E0,8.576016E-1,-2.0985141E-1,-2.8798223E-1,-6.57879E-1,2.3394606E0,7.3160124E-1,1.6658972E-1,-2.0986652E0,-3.8970646E-2,1.23000285E-2,2.7722807E-3,-2.1019243E-3,-8.58864E-3,-7.858048E-2,-2.2696308E-3,2.8738722E-2,-3.4218181E-3,3.2634526E-2,-2.7892059E-2,3.2903787E-2,4.0113878E-2,8.340176E-3,2.3167129E-3,-3.446332E-2,-1.2042389E-2,1.2106013E-3,-4.232295E-2,-1.988935E-2,-6.2215417E-3,6.317698E-2,7.584734E-2,3.997994E-2,-1.300248E-2,5.6444574E-3,1.0270091E-3,-1.1853386E-2,-9.689585E-3,2.7478427E-2,-5.729302E-3,-2.636066E-2],"split_indices":[3,4,4,5,2,6,7,7,4,3,6,5,1,5,6,3,6,2,6,3,4,6,8,6,4,4,8,3,5,4,8,0,0,0,0,0,0,0,0,0,0,0,0,0,0,0,0,0,0,0,0,0,0,0,0,0,0,0,0,0,0,0,0],"split_type":[0,0,0,0,0,0,0,0,0,0,0,0,0,0,0,0,0,0,0,0,0,0,0,0,0,0,0,0,0,0,0,0,0,0,0,0,0,0,0,0,0,0,0,0,0,0,0,0,0,0,0,0,0,0,0,0,0,0,0,0,0,0,0],"sum_hessian":[5.6951805E4,2.735094E4,2.9600865E4,2.5336598E4,2.0143433E3,4.1345786E3,2.5466287E4,2.4852975E4,4.8362137E2,6.580242E2,1.3563191E3,4.0660159E3,6.8562874E1,2.4206268E4,1.2600197E3,1.1496849E3,2.3703291E4,4.589097E1,4.377304E2,6.0362164E2,5.4402527E1,1.2837522E3,7.256693E1,3.1194387E3,9.4657715E2,3.866585E1,2.9897024E1,2.6101523E3,2.1596115E4,3.019933E2,9.580263E2,3.1753723E1,1.1179312E3,1.9050885E4,4.652405E3,2.433768E1,2.1553286E1,9.188781E1,3.458426E2,5.835896E1,5.452627E2,3.975323E1,1.4649298E1,6.622349E1,1.2175287E3,2.1835814E1,5.0731117E1,2.6927E3,4.267388E2,1.8604088E2,7.6053625E2,2.8456688E1,1.0209164E1,1.3918316E1,1.5978707E1,2.3731309E3,2.3702147E2,2.0661902E4,9.34214E2,2.630463E2,3.8946987E1,1.3380331E2,8.24223E2],"tree_param":{"num_deleted":"0","num_feature":"10","num_nodes":"63","size_leaf_vector":"1"}},{"base_weights":[-9.597527E-4,9.903941E-3,-3.0892366E-1,-6.806921E-2,2.807139E-2,-4.4191465E-1,-1.2972338E-1,2.0336422E-1,-1.0984076E-1,3.256234E-2,-3.922516E-1,-3.981827E-1,-9.1452974E-1,-4.6733778E-2,-7.518828E-1,2.6129764E-1,-1.8275577E-1,-8.5919745E-2,-3.1880352E-1,3.4480935E-1,2.6974272E-2,-4.2455234E-2,-5.851729E-1,-5.868472E-1,-2.9413307E-1,-1.0932899E0,-5.943731E-1,-5.192144E-1,1.0049854E-1,-1.2486249E0,-4.189306E-1,3.305211E-2,1.0740305E-2,-2.376357E-2,-1.1585003E-3,-4.980394E-2,-4.131721E-3,2.1829283E-2,-1.7667811E-2,5.0496655E-3,2.3216788E-2,8.281325E-4,7.840048E-3,1.0772922E-2,-2.0720446E-2,5.9477728E-2,-3.0229384E-2,-3.1696934E-2,5.318133E-3,-3.3842034E-3,-1.8616132E-2,1.7951585E-2,-5.744924E-2,-1.0121281E-2,-5.2158367E-2,2.4056679E-2,-3.2147076E-2,1.3109601E-2,-7.975525E-3,-6.788562E-2,-7.1595362E-3,2.000866E-2,-3.2217067E-2],"categories":[],"categories_nodes":[],"categories_segments":[],"categories_sizes":[],"default_left":[0,0,0,0,0,0,0,0,0,0,0,0,0,0,0,0,0,0,0,0,0,0,0,0,0,0,0,0,0,0,0,0,0,0,0,0,0,0,0,0,0,0,0,0,0,0,0,0,0,0,0,0,0,0,0,0,0,0,0,0,0,0,0],"id":2,"left_children":[1,3,5,7,9,11,13,15,17,19,21,23,25,27,29,31,33,35,37,39,41,43,45,47,49,51,53,55,57,59,61,-1,-1,-1,-1,-1,-1,-1,-1,-1,-1,-1,-1,-1,-1,-1,-1,-1,-1,-1,-1,-1,-1,-1,-1,-1,-1,-1,-1,-1,-1,-1,-1],"loss_changes":[1.904726E2,7.790215E1,4.6174133E1,1.1784883E2,8.4203926E1,2.2641739E1,4.2706078E1,3.1058498E1,4.499343E1,7.699208E1,3.1798843E1,1.9862137E1,4.7014313E0,5.093404E1,1.55789795E1,2.2268555E1,8.459478E0,2.408707E1,2.4291367E1,2.2561874E1,5.8601505E1,1.6274145E1,1.1189262E1,1.1877472E1,1.1657417E1,5.169449E0,6.0673523E0,2.1837635E1,2.3522045E1,4.4559975E0,1.1297759E1,0E0,0E0,0E0,0E0,0E0,0E0,0E0,0E0,0E0,0E0,0E0,0E0,0E0,0E0,0E0,0E0,0E0,0E0,0E0,0E0,0E0,0E0,0E0,0E0,0E0,0E0,0E0,0E0,0E0,0E0,0E0,0E0],"parents":[2147483647,0,0,1,1,2,2,3,3,4,4,5,5,6,6,7,7,8,8,9,9,10,10,11,11,12,12,13,13,14,14,15,15,16,16,17,17,18,18,19,19,20,20,21,21,22,22,23,23,24,24,25,25,26,26,27,27,28,28,29,29,30,30],"right_children":[2,4,6,8,10,12,14,16,18,20,22,24,26,28,30,32,34,36,38,40,42,44,46,48,50,52,54,56,58,60,62,-1,-1,-1,-1,-1,-1,-1,-1,-1,-1,-1,-1,-1,-1,-1,-1,-1,-1,-1,-1,-1,-1,-1,-1,-1,-1,-1,-1,-1,-1,-1,-1],"split_conditions":[7.3160124E-1,-6.72335E-2,8.851445E-1,2.8117546E1,7.622661E1,1.2507726E0,5.023608E-1,1.0096673E0,3.6323082E-1,-8.327483E-1,3.6011848E-1,1.0956852E0,9.786762E0,-8.637394E-2,-2.0649122E1,-3.732504E0,-1.7799149E0,2.0338528E-1,3.541629E-1,2.7875654E-2,3.6323082E-1,1.8393631E1,1.654765E-1,8.450333E-1,8.1693333E-1,-2.8798223E-1,4.3510464E1,9.4893247E-1,1.2507726E0,5.159831E0,-4.0536637E0,3.305211E-2,1.0740305E-2,-2.376357E-2,-1.1585003E-3,-4.980394E-2,-4.131721E-3,2.1829283E-2,-1.7667811E-2,5.0496655E-3,2.3216788E-2,8.281325E-4,7.840048E-3,1.0772922E-2,-2.0720446E-2,5.9477728E-2,-3.0229384E-2,-3.1696934E-2,5.318133E-3,-3.3842034E-3,-1.8616132E-2,1.7951585E-2,-5.744924E-2,-1.0121281E-2,-5.2158367E-2,2.4056679E-2,-3.2147076E-2,1.3109601E-2,-7.975525E-3,-6.788562E-2,-7.1595362E-3,2.000866E-2,-3.2217067E-2],"split_indices":[5,4,6,7,7,5,4,6,5,5,6,1,9,4,9,2,5,6,6,4,5,9,5,6,5,4,9,6,5,8,8,0,0,0,0,0,0,0,0,0,0,0,0,0,0,0,0,0,0,0,0,0,0,0,0,0,0,0,0,0,0,0,0],"split_type":[0,0,0,0,0,0,0,0,0,0,0,0,0,0,0,0,0,0,0,0,0,0,0,0,0,0,0,0,0,0,0,0,0,0,0,0,0,0,0,0,0,0,0,0,0,0,0,0,0,0,0,0,0,0,0,0,0,0,0,0,0,0,0],"sum_hessian":[5.6929918E4,5.499103E4,1.9388884E3,1.0390999E4,4.460003E4,1.112096E3,8.2679254E2,1.3853115E3,9.0056875E3,4.412945E4,4.7057968E2,1.0195935E3,9.250241E1,7.304352E2,9.6357346E1,1.204858E3,1.804535E2,8.0819204E3,9.237665E2,7.74802E2,4.335465E4,1.6771188E2,3.028678E2,3.607804E2,6.5881305E2,5.780951E1,3.46929E1,1.7293762E2,5.5749756E2,3.7564095E1,5.879325E1,1.2415214E2,1.0807058E3,6.299942E1,1.17454094E2,2.7980951E1,8.05394E3,3.9897377E1,8.8386914E2,2.5548845E2,5.1931354E2,4.013694E4,3.217708E3,9.928685E1,6.8425026E1,2.6252E0,3.0024258E2,3.379108E2,2.2869606E1,1.695721E2,4.8924097E2,1.9339054E0,5.5875603E1,1.929391E1,1.5398992E1,1.871731E1,1.542203E2,3.43731E2,2.1376657E2,3.39824E1,3.5816963E0,1.252052E1,4.627273E1],"tree_param":{"num_deleted":"0","num_feature":"10","num_nodes":"63","size_leaf_vector":"1"}},{"base_weights":[3.991362E-3,6.7385994E-2,-5.459039E-2,5.3996507E-2,2.3547176E-1,-2.1868376E-1,-2.8866978E-2,-3.1249074E-4,7.3798515E-2,3.9355296E-1,7.1113795E-2,-2.3150998E-1,5.6424373E-1,-1.401734E-2,-2.7679634E-1,-4.8653986E-2,1.20335594E-1,8.131508E-3,1.1572068E-1,-2.87786E-1,4.3903878E-1,6.742097E-1,2.5044996E-2,-1.7404935E-1,-4.1550136E-1,-2.5778216E-1,8.275127E-1,-2.039617E-1,9.970322E-3,-4.3978354E-1,2.087096E-2,1.2058425E-3,-8.751313E-3,1.2212123E-2,-1.548743E-3,8.1505915E-3,-1.0603318E-3,-2.1261744E-2,6.1736032E-3,4.9279034E-3,-5.5785682E-2,2.9221639E-2,1.257129E-2,-2.2169268E-2,4.0529493E-2,4.8329397E-3,-1.5661111E-2,-1.0629048E-2,1.5907495E-3,4.4242695E-2,-2.2328984E-2,-3.4413103E-2,4.089321E-2,2.8404027E-2,6.647583E-2,-1.1877368E-2,7.0559354E-3,6.487415E-4,-2.5281144E-2,-1.952861E-2,-4.7186922E-2,2.128732E-2,-1.4101163E-2],"categories":[],"categories_nodes":[],"categories_segments":[],"categories_sizes":[],"default_left":[0,0,0,0,0,0,0,0,0,0,0,0,0,0,0,0,0,0,0,0,0,0,0,0,0,0,0,0,0,0,0,0,0,0,0,0,0,0,0,0,0,0,0,0,0,0,0,0,0,0,0,0,0,0,0,0,0,0,0,0,0,0,0],"id":3,"left_children":[1,3,5,7,9,11,13,15,17,19,21,23,25,27,29,31,33,35,37,39,41,43,45,47,49,51,53,55,57,59,61,-1,-1,-1,-1,-1,-1,-1,-1,-1,-1,-1,-1,-1,-1,-1,-1,-1,-1,-1,-1,-1,-1,-1,-1,-1,-1,-1,-1,-1,-1,-1,-1],"loss_changes":[2.1100464E2,6.139997E1,1.24638435E2,2.7181938E1,5.2273804E1,4.0314514E1,9.398454E1,3.9399864E1,5.0988396E1,3.191954E1,2.7437271E1,4.1559067E1,1.4234711E1,1.0975118E2,6.9997284E1,4.4357277E1,3.6238445E1,3.2802197E1,4.7455414E1,2.0838806E1,2.6096268E1,1.1041664E1,2.2293797E1,2.3822655E1,3.8237457E1,8.193435E0,5.666748E0,3.1336143E1,3.313776E1,2.275064E1,6.2830788E1,0E0,0E0,0E0,0E0,0E0,0E0,0E0,0E0,0E0,0E0,0E0,0E0,0E0,0E0,0E0,0E0,0E0,0E0,0E0,0E0,0E0,0E0,0E0,0E0,0E0,0E0,0E0,0E0,0E0,0E0,0E0,0E0],"parents":[2147483647,0,0,1,1,2,2,3,3,4,4,5,5,6,6,7,7,8,8,9,9,10,10,11,11,12,12,13,13,14,14,15,15,16,16,17,17,18,18,19,19,20,20,21,21,22,22,23,23,24,24,25,25,26,26,27,27,28,28,29,29,30,30],"right_children":[2,4,6,8,10,12,14,16,18,20,22,24,26,28,30,32,34,36,38,40,42,44,46,48,50,52,54,56,58,60,62,-1,-1,-1,-1,-1,-1,-1,-1,-1,-1,-1,-1,-1,-1,-1,-1,-1,-1,-1,-1,-1,-1,-1,-1,-1,-1,-1,-1,-1,-1,-1,-1],"split_conditions":[1.5693947E-4,1.4472787E-1,-8.2518265E-2,2.7201712E-1,-2.8218746E0,1.5692177E0,7.3160124E-1,-1.9382279E-1,-2.4866572E-1,-1.0086784E1,4.3241683E-1,3.8354433E-1,-5.056028E-1,-7.639474E-2,8.9943135E-1,-7.92377E-2,1.745942E-3,-9.577334E-1,-2.3291059E-1,-6.90938E-2,-9.9014103E-1,-8.6951904E-2,-5.18386E-1,8.327054E-1,3.541629E-1,6.202707E0,6.2154037E-1,2.3394606E0,2.2154918E0,1.2507726E0,1.6058467E-1,1.2058425E-3,-8.751313E-3,1.2212123E-2,-1.548743E-3,8.1505915E-3,-1.0603318E-3,-2.1261744E-2,6.1736032E-3,4.9279034E-3,-5.5785682E-2,2.9221639E-2,1.257129E-2,-2.2169268E-2,4.0529493E-2,4.8329397E-3,-1.5661111E-2,-1.0629048E-2,1.5907495E-3,4.4242695E-2,-2.2328984E-2,-3.4413103E-2,4.089321E-2,2.8404027E-2,6.647583E-2,-1.1877368E-2,7.0559354E-3,6.487415E-4,-2.5281144E-2,-1.952861E-2,-4.7186922E-2,2.128732E-2,-1.4101163E-2],"split_indices":[3,4,4,6,3,6,5,3,5,3,6,5,4,5,6,2,4,5,4,1,2,1,3,6,6,3,1,3,1,5,4,0,0,0,0,0,0,0,0,0,0,0,0,0,0,0,0,0,0,0,0,0,0,0,0,0,0,0,0,0,0,0,0],"split_type":[0,0,0,0,0,0,0,0,0,0,0,0,0,0,0,0,0,0,0,0,0,0,0,0,0,0,0,0,0,0,0,0,0,0,0,0,0,0,0,0,0,0,0,0,0,0,0,0,0,0,0,0,0,0,0,0,0,0,0,0,0,0,0],"sum_hessian":[5.6814863E4,2.7286475E4,2.9528389E4,2.5274467E4,2.0120083E3,4.0005835E3,2.5527807E4,6.7534453E3,1.8521021E4,1.0248767E3,9.871316E2,3.9367937E3,6.3789722E1,2.4086227E4,1.4415792E3,4.8219673E3,1.9314779E3,7.2171895E3,1.1303832E4,6.380499E1,9.610717E2,6.9085434E1,9.180462E2,3.0014004E3,9.353933E2,1.5479057E1,4.8310665E1,2.699887E3,2.138634E4,9.3121606E2,5.1036313E2,3.0604385E3,1.7615287E3,1.0615605E3,8.699173E2,1.1486648E3,6.068525E3,1.5892426E2,1.1144907E4,4.410486E1,1.970013E1,5.4026697E2,4.2080475E2,7.268782E0,6.181665E1,7.5823596E2,1.598102E2,2.5281704E3,4.7322986E2,2.1192686E1,9.142006E2,1.131205E1,4.167007E0,3.3255886E1,1.505478E1,2.4607053E3,2.3918163E2,2.1263406E4,1.2293305E2,8.499894E2,8.122673E1,2.1823935E2,2.9212378E2],"tree_param":{"num_deleted":"0","num_feature":"10","num_nodes":"63","size_leaf_vector":"1"}},{"base_weights":[6.8452006E-4,5.1550075E-2,-5.7528816E-2,3.6902115E-2,1.729457E-1,-4.096646E-2,-3.3719113E-1,4.080453E-2,-3.0027348E-1,3.46241E-1,5.9384845E-2,-2.0461233E-1,-1.0315741E-2,2.246745E-1,-3.615859E-1,2.0185886E-1,3.246576E-2,-6.7690647E-1,1.7540572E-2,4.694971E-1,1.5191852E-1,9.015223E-2,-4.357549E-1,-2.1735315E-1,5.3649586E-1,-2.1470483E-1,6.213763E-3,3.3692144E-2,8.4362596E-1,-6.140189E-1,-3.2754925E-1,1.7954176E-2,5.1024924E-3,1.4442297E-3,1.7617542E-2,-1.2659125E-3,-4.2205006E-2,4.5244936E-3,-3.0945618E-2,2.5215E-2,-1.8384589E-3,6.0088816E-3,6.232527E-2,-1.5177421E-2,6.515186E-3,-4.6141837E-2,-1.1534705E-2,-1.81476E-2,-8.554409E-3,-8.34983E-4,4.6959102E-2,-1.3183594E-3,-1.7870976E-2,-2.2845203E-3,1.7389866E-3,7.3200734E-3,-4.8512887E-2,5.1155116E-2,-2.506255E-2,-2.536854E-2,-5.9935547E-2,-2.6837831E-2,-1.3857717E-2],"categories":[],"categories_nodes":[],"categories_segments":[],"categories_sizes":[],"default_left":[0,0,0,0,0,0,0,0,0,0,0,0,0,0,0,0,0,0,0,0,0,0,0,0,0,0,0,0,0,0,0,0,0,0,0,0,0,0,0,0,0,0,0,0,0,0,0,0,0,0,0,0,0,0,0,0,0,0,0,0,0,0,0],"id":4,"left_children":[1,3,5,7,9,11,13,15,17,19,21,23,25,27,29,31,33,35,37,39,41,43,45,47,49,51,53,55,57,59,61,-1,-1,-1,-1,-1,-1,-1,-1,-1,-1,-1,-1,-1,-1,-1,-1,-1,-1,-1,-1,-1,-1,-1,-1,-1,-1,-1,-1,-1,-1,-1,-1],"loss_changes":[1.6837683E2,5.395685E1,1.2280794E2,3.5645275E1,6.427725E1,1.25571205E2,2.0400513E1,3.5948032E1,3.7114277E1,3.0903366E1,3.0126858E1,3.740724E1,7.124246E1,7.3362865E0,1.2009323E1,2.064159E1,2.9150312E1,1.5435249E1,7.9063373E0,1.3952698E1,1.7339787E1,2.9446426E1,1.1344999E1,2.609616E1,1.4948826E1,4.2399216E1,2.892913E1,5.647378E0,4.048793E0,9.849503E0,1.3076736E1,0E0,0E0,0E0,0E0,0E0,0E0,0E0,0E0,0E0,0E0,0E0,0E0,0E0,0E0,0E0,0E0,0E0,0E0,0E0,0E0,0E0,0E0,0E0,0E0,0E0,0E0,0E0,0E0,0E0,0E0,0E0,0E0],"parents":[2147483647,0,0,1,1,2,2,3,3,4,4,5,5,6,6,7,7,8,8,9,9,10,10,11,11,12,12,13,13,14,14,15,15,16,16,17,17,18,18,19,19,20,20,21,21,22,22,23,23,24,24,25,25,26,26,27,27,28,28,29,29,30,30],"right_children":[2,4,6,8,10,12,14,16,18,20,22,24,26,28,30,32,34,36,38,40,42,44,46,48,50,52,54,56,58,60,62,-1,-1,-1,-1,-1,-1,-1,-1,-1,-1,-1,-1,-1,-1,-1,-1,-1,-1,-1,-1,-1,-1,-1,-1,-1,-1,-1,-1,-1,-1,-1,-1],"split_conditions":[1.8524873E-1,1.0826585E-1,7.299072E1,1.6894536E0,-2.9961455E0,-8.063925E-2,8.533446E-1,2.721175E1,-2.8798223E-1,-1.019796E0,1.2722777E0,1.5692177E0,-2.0572793E-1,7.908858E-2,-4.622916E1,4.947542E-1,8.9654154E-1,-3.337173E1,-3.1892858E0,2.3430314E0,6.508497E1,4.5032322E1,-2.1949198E0,-1.7435303E-1,-4.0648302E-1,-1.7710803E-1,5.3773026E1,2.3264642E-1,1.370303E0,1.605068E0,5.053684E-1,1.7954176E-2,5.1024924E-3,1.4442297E-3,1.7617542E-2,-1.2659125E-3,-4.2205006E-2,4.5244936E-3,-3.0945618E-2,2.5215E-2,-1.8384589E-3,6.0088816E-3,6.232527E-2,-1.5177421E-2,6.515186E-3,-4.6141837E-2,-1.1534705E-2,-1.81476E-2,-8.554409E-3,-8.34983E-4,4.6959102E-2,-1.3183594E-3,-1.7870976E-2,-2.2845203E-3,1.7389866E-3,7.3200734E-3,-4.8512887E-2,5.1155116E-2,-2.506255E-2,-2.536854E-2,-5.9935547E-2,-2.6837831E-2,-1.3857717E-2],"split_indices":[3,4,7,6,3,4,2,7,4,2,6,6,2,4,9,6,2,9,3,6,7,7,3,4,4,0,7,6,3,0,0,0,0,0,0,0,0,0,0,0,0,0,0,0,0,0,0,0,0,0,0,0,0,0,0,0,0,0,0,0,0,0,0],"split_type":[0,0,0,0,0,0,0,0,0,0,0,0,0,0,0,0,0,0,0,0,0,0,0,0,0,0,0,0,0,0,0,0,0,0,0,0,0,0,0,0,0,0,0,0,0,0,0,0,0,0,0,0,0,0,0,0,0,0,0,0,0,0,0],"sum_hessian":[5.686182E4,3.0346137E4,2.6515684E4,2.7079898E4,3.266238E3,2.5034234E4,1.4814485E3,2.6770936E4,3.0896344E2,1.2922299E3,1.9740082E3,3.9483105E3,2.1085924E4,6.130255E1,1.4201459E3,1.3167194E3,2.5454215E4,1.4088019E2,1.6808325E2,7.8983325E2,5.0239664E2,1.859292E3,1.147162E2,3.882275E3,6.603566E1,1.5767877E3,1.9509137E4,4.7653214E1,1.364934E1,1.6670879E2,1.2534371E3,5.1028806E2,8.064313E2,2.5173484E4,2.8073077E2,2.9002575E1,1.1187762E2,1.5156851E2,1.651474E1,7.3903284E2,5.0800385E1,4.893172E2,1.3079452E1,1.714638E2,1.6878281E3,3.294989E1,8.176632E1,9.344994E2,2.9477754E3,2.8222775E1,3.7812885E1,6.802545E2,8.9653314E2,6.925305E3,1.2583832E4,4.3611324E1,4.041889E0,1.22533655E1,1.3959742E0,1.4257144E2,2.4137339E1,2.4144809E2,1.0119891E3],"tree_param":{"num_deleted":"0","num_feature":"10","num_nodes":"63","size_leaf_vector":"1"}},{"base_weights":[-5.5172463E-4,5.4986496E-2,-5.2644443E-2,4.9040463E-2,2.6779926E-1,-3.9634004E-2,-3.4035453E-1,-2.7920011E-2,6.306384E-2,4.3387333E-1,-1.836328E-1,-1.7800203E-1,-1.9196218E-2,-1.11496076E-1,-4.085528E-1,-1.1362971E-1,1.0866889E-1,1.7804265E-1,5.58526E-2,6.6299605E-1,7.367085E-2,2.1615988E-1,-5.6645536E-1,-1.912389E-1,5.06957E-1,-8.086021E-3,-2.2411183E-1,-1.8993653E-1,6.622072E-1,-8.8601E-1,-3.6892256E-1,-1.44534E-3,-1.6252702E-2,-9.0295775E-3,6.69085E-3,-1.3144391E-2,1.2283846E-2,3.905651E-3,-9.0256345E-4,1.4430937E-2,4.028952E-2,-1.7611865E-2,1.695393E-2,-7.5967945E-2,1.8838305E-2,-6.771814E-2,-2.452441E-2,-7.3076114E-2,-9.317609E-3,-7.132953E-2,3.007268E-2,-1.028921E-3,7.310753E-3,-1.9417923E-2,-1.4637302E-3,1.240939E-2,-1.5439286E-2,4.32618E-2,-6.3268036E-2,-1.44916E-2,-5.8382344E-2,-2.3161383E-2,-1.0740516E-2],"categories":[],"categories_nodes":[],"categories_segments":[],"categories_sizes":[],"default_left":[0,0,0,0,0,0,0,0,0,0,0,0,0,0,0,0,0,0,0,0,0,0,0,0,0,0,0,0,0,0,0,0,0,0,0,0,0,0,0,0,0,0,0,0,0,0,0,0,0,0,0,0,0,0,0,0,0,0,0,0,0,0,0],"id":5,"left_children":[1,3,5,7,9,11,13,15,17,19,21,23,25,27,29,31,33,35,37,39,41,43,45,47,49,51,53,55,57,59,61,-1,-1,-1,-1,-1,-1,-1,-1,-1,-1,-1,-1,-1,-1,-1,-1,-1,-1,-1,-1,-1,-1,-1,-1,-1,-1,-1,-1,-1,-1,-1,-1],"loss_changes":[1.6443518E2,3.47958E1,1.09767624E2,2.8884483E1,5.6118797E1,7.934891E1,1.9756226E1,4.8309822E1,1.8759651E1,4.5074318E1,3.0997326E1,3.283802E1,5.566241E1,1.7886421E1,1.816098E1,4.5405384E1,1.1598772E1,3.989267E1,3.5047478E1,1.7625488E1,2.427514E1,2.8279325E1,5.520466E0,2.1723404E1,1.3417055E1,4.4710777E1,4.022797E1,1.3952737E1,1.1724443E1,1.2115208E1,1.3037369E1,0E0,0E0,0E0,0E0,0E0,0E0,0E0,0E0,0E0,0E0,0E0,0E0,0E0,0E0,0E0,0E0,0E0,0E0,0E0,0E0,0E0,0E0,0E0,0E0,0E0,0E0,0E0,0E0,0E0,0E0,0E0,0E0],"parents":[2147483647,0,0,1,1,2,2,3,3,4,4,5,5,6,6,7,7,8,8,9,9,10,10,11,11,12,12,13,13,14,14,15,15,16,16,17,17,18,18,19,19,20,20,21,21,22,22,23,23,24,24,25,25,26,26,27,27,28,28,29,29,30,30],"right_children":[2,4,6,8,10,12,14,16,18,20,22,24,26,28,30,32,34,36,38,40,42,44,46,48,50,52,54,56,58,60,62,-1,-1,-1,-1,-1,-1,-1,-1,-1,-1,-1,-1,-1,-1,-1,-1,-1,-1,-1,-1,-1,-1,-1,-1,-1,-1,-1,-1,-1,-1,-1,-1],"split_conditions":[1.252457E-2,3.4377107E-1,7.387169E1,2.1723486E-1,1.2722777E0,-7.878121E-2,3.68065E-1,-2.0784557E-1,-9.577334E-1,-6.725945E-1,-3.0901306E0,4.6745067E0,7.3160124E-1,5.667612E-1,3.9865386E-1,-3.0131731E-2,-2.1257243E-1,-3.458461E0,6.1815786E-1,4.0491587E-1,5.914212E-1,-1.0086784E1,-4.9986467E0,1.6570969E-1,7.3882675E-1,8.449084E-1,8.851445E-1,9.384586E-1,7.3160124E-1,4.0635365E-1,1.9625702E1,-1.44534E-3,-1.6252702E-2,-9.0295775E-3,6.69085E-3,-1.3144391E-2,1.2283846E-2,3.905651E-3,-9.0256345E-4,1.4430937E-2,4.028952E-2,-1.7611865E-2,1.695393E-2,-7.5967945E-2,1.8838305E-2,-6.771814E-2,-2.452441E-2,-7.3076114E-2,-9.317609E-3,-7.132953E-2,3.007268E-2,-1.028921E-3,7.310753E-3,-1.9417923E-2,-1.4637302E-3,1.240939E-2,-1.5439286E-2,4.32618E-2,-6.3268036E-2,-1.44916E-2,-5.8382344E-2,-2.3161383E-2,-1.0740516E-2],"split_indices":[3,5,7,6,6,5,6,3,5,3,3,3,5,5,6,2,2,1,6,1,6,3,8,6,6,1,6,3,5,5,9,0,0,0,0,0,0,0,0,0,0,0,0,0,0,0,0,0,0,0,0,0,0,0,0,0,0,0,0,0,0,0,0],"split_type":[0,0,0,0,0,0,0,0,0,0,0,0,0,0,0,0,0,0,0,0,0,0,0,0,0,0,0,0,0,0,0,0,0,0,0,0,0,0,0,0,0,0,0,0,0,0,0,0,0,0,0,0,0,0,0,0,0,0,0,0,0,0,0],"sum_hessian":[5.6834297E4,2.7507428E4,2.9326871E4,2.6760951E4,7.464759E2,2.8059156E4,1.2677157E3,4.124523E3,2.2636428E4,5.4574475E2,2.0073116E2,3.6101287E3,2.4449027E4,2.91647E2,9.760688E2,2.5343706E3,1.5901525E3,1.3345267E3,2.1301902E4,3.330518E2,2.1269293E2,9.8402214E1,1.0232894E2,3.5423926E3,6.773612E1,2.31926E4,1.2564263E3,2.6548575E2,2.6161264E1,7.317032E1,9.0289844E2,1.8101398E3,7.242308E2,1.2669466E2,1.4634578E3,1.7709538E2,1.1574314E3,1.6370825E4,4.9310767E3,9.279191E1,2.4025989E2,8.153078E1,1.3116216E2,7.618302E0,9.078391E1,7.5187373E0,9.48102E1,1.2432941E1,3.5299597E3,2.4993227E0,6.523679E1,2.1456336E4,1.7362638E3,6.8119214E2,5.752342E2,5.6418156E1,2.0906758E2,2.4166914E1,1.9943511E0,2.4126875E1,4.904344E1,5.588925E2,3.4400592E2],"tree_param":{"num_deleted":"0","num_feature":"10","num_nodes":"63","size_leaf_vector":"1"}},{"base_weights":[-2.1267775E-3,6.941641E-3,-2.6146173E-1,-6.084685E-2,2.2687498E-2,1.4394428E-1,-3.1561235E-1,-1.6187603E-2,-1.7789046E-1,4.2272353E-1,1.9528868E-2,-8.577471E-2,3.3652547E-1,-6.3064826E-1,-2.6261562E-1,-9.0921694E-1,-1.1158533E-2,-2.1898554E-1,6.7596465E-2,8.178372E-1,3.6107096E-1,-3.51962E-2,3.389204E-2,-6.302202E-2,-5.0539322E-2,3.8184667E-1,-8.685578E-1,-6.6558844E-1,6.553981E-1,-4.1010934E-1,-1.16252124E-1,-5.085447E-2,4.691428E-2,-6.907682E-5,-2.4141187E-2,-1.766562E-2,-7.7122487E-3,-1.4449487E-2,1.5451938E-2,4.8898052E-2,-5.874527E-3,1.8732904E-2,-6.309047E-2,-1.5383953E-3,-4.1584432E-2,-1.0627108E-3,2.4561132E-3,1.31973345E-2,-1.08810775E-2,3.792848E-4,2.6794026E-2,-6.15727E-2,-1.2731927E-2,-3.625424E-2,1.9447803E-3,4.9437642E-2,1.2749904E-3,-1.3185674E-2,-2.7398506E-2,3.9018735E-3,-2.392972E-2],"categories":[],"categories_nodes":[],"categories_segments":[],"categories_sizes":[],"default_left":[0,0,0,0,0,0,0,0,0,0,0,0,0,0,0,0,0,0,0,0,0,0,0,0,0,0,0,0,0,0,0,0,0,0,0,0,0,0,0,0,0,0,0,0,0,0,0,0,0,0,0,0,0,0,0,0,0,0,0,0,0],"id":6,"left_children":[1,3,5,7,9,11,13,15,17,19,21,23,25,27,29,31,33,35,37,39,41,43,45,-1,47,49,51,53,55,57,59,-1,-1,-1,-1,-1,-1,-1,-1,-1,-1,-1,-1,-1,-1,-1,-1,-1,-1,-1,-1,-1,-1,-1,-1,-1,-1,-1,-1,-1,-1],"loss_changes":[1.3355452E2,5.8569744E1,4.216684E1,5.4061665E1,5.625654E1,1.00611925E1,2.8099442E1,3.3617832E1,2.8831886E1,8.201115E0,3.4728428E1,4.2496076E0,7.080039E0,1.1358475E1,3.1273247E1,9.308369E0,3.4339848E1,2.122654E1,3.5420647E1,7.0473347E0,7.1650352E0,3.2372643E1,2.939407E1,0E0,5.4285264E0,6.900942E0,7.5221896E-1,9.96759E0,1.4305885E0,1.44320755E1,5.1402103E1,0E0,0E0,0E0,0E0,0E0,0E0,0E0,0E0,0E0,0E0,0E0,0E0,0E0,0E0,0E0,0E0,0E0,0E0,0E0,0E0,0E0,0E0,0E0,0E0,0E0,0E0,0E0,0E0,0E0,0E0],"parents":[2147483647,0,0,1,1,2,2,3,3,4,4,5,5,6,6,7,7,8,8,9,9,10,10,11,11,12,12,13,13,14,14,15,15,16,16,17,17,18,18,19,19,20,20,21,21,22,22,24,24,25,25,26,26,27,27,28,28,29,29,30,30],"right_children":[2,4,6,8,10,12,14,16,18,20,22,24,26,28,30,32,34,36,38,40,42,44,46,-1,48,50,52,54,56,58,60,-1,-1,-1,-1,-1,-1,-1,-1,-1,-1,-1,-1,-1,-1,-1,-1,-1,-1,-1,-1,-1,-1,-1,-1,-1,-1,-1,-1,-1,-1],"split_conditions":[7.3160124E-1,-6.72335E-2,-1.9183431E0,1.3448909E-1,-1.1401147E0,1.0042927E0,-1.1649529E-1,2.103164E-1,8.327054E-1,-2.3157105E0,2.2610168E-1,4.886769E-1,2.1141547E2,8.2685417E-1,7.7570736E-1,8.881626E-1,1.8728942E0,-5.8873024E-2,-1.9975084E-1,3.2024938E-1,1.8172449E0,2.3874225E-1,-1.523561E-1,-6.302202E-2,7.471471E-1,-1.4202605E1,3.707953E2,1.6894536E0,-7.5299716E-1,8.672102E-1,1.2507726E0,-5.085447E-2,4.691428E-2,-6.907682E-5,-2.4141187E-2,-1.766562E-2,-7.7122487E-3,-1.4449487E-2,1.5451938E-2,4.8898052E-2,-5.874527E-3,1.8732904E-2,-6.309047E-2,-1.5383953E-3,-4.1584432E-2,-1.0627108E-3,2.4561132E-3,1.31973345E-2,-1.08810775E-2,3.792848E-4,2.6794026E-2,-6.15727E-2,-1.2731927E-2,-3.625424E-2,1.9447803E-3,4.9437642E-2,1.2749904E-3,-1.3185674E-2,-2.7398506E-2,3.9018735E-3,-2.392972E-2],"split_indices":[5,4,8,2,5,5,4,6,6,8,6,6,9,0,6,8,6,1,4,1,1,5,5,0,6,9,9,6,8,5,5,0,0,0,0,0,0,0,0,0,0,0,0,0,0,0,0,0,0,0,0,0,0,0,0,0,0,0,0,0,0],"split_type":[0,0,0,0,0,0,0,0,0,0,0,0,0,0,0,0,0,0,0,0,0,0,0,0,0,0,0,0,0,0,0,0,0,0,0,0,0,0,0,0,0,0,0,0,0,0,0,0,0,0,0,0,0,0,0,0,0,0,0,0,0],"sum_hessian":[5.6787453E4,5.4869742E4,1.9177107E3,1.0342165E4,4.452758E4,2.257728E2,1.6919379E3,7.48668E3,2.8554846E3,3.477888E2,4.417979E4,1.0321189E2,1.2256091E2,2.4206952E2,1.4498684E3,4.0918106E1,7.4457617E3,2.4461084E3,4.0937625E2,4.52877E1,3.025011E2,9.184501E3,3.4995285E4,1.9931437E0,1.0121874E2,1.1877704E2,3.7838738E0,2.3613646E2,5.9330597E0,7.212485E2,7.286199E2,3.9085457E1,1.8326523E0,7.295538E3,1.5022394E2,7.9407214E2,1.6520363E3,1.6519814E2,2.4417813E2,3.8629005E1,6.6586933E0,3.0075226E2,1.7488267E0,9.134753E3,4.97483E1,7.573269E3,2.7422018E4,3.491715E1,6.63016E1,3.4937504E1,8.383954E1,1.745937E0,2.0379367E0,2.1771996E2,1.8416502E1,3.50725E0,2.4258096E0,3.512088E2,3.7003967E2,4.7480948E2,2.538104E2],"tree_param":{"num_deleted":"0","num_feature":"10","num_nodes":"61","size_leaf_vector":"1"}},{"base_weights":[7.632115E-5,5.271536E-2,-4.4162653E-2,3.2665003E-2,1.637812E-1,-1.8594882E-1,-2.162377E-2,3.972717E-2,-1.393983E-1,3.4132174E-1,8.463945E-2,-1.9720118E-1,5.236092E-1,-6.144875E-3,-2.8909314E-1,3.7655008E-1,3.43512E-2,-4.4030395E-1,-2.28506E-2,5.2143306E-1,1.7911854E-1,3.2216215E-1,9.4793085E-3,-3.9869022E-1,-1.5627477E-1,2.6881206E-1,1.2092558E0,-1.539199E-1,1.5961872E-2,3.5509792E-1,-3.1050986E-1,-3.9196825E-3,2.9032826E-2,1.5094945E-3,2.0629441E-2,-1.5271424E-2,-5.22373E-2,2.4749476E-3,-3.3495285E-2,2.3675257E-2,4.6200793E-2,1.29940035E-2,-1.265829E-2,-3.3472404E-2,1.7475888E-2,-1.3217689E-3,1.3943927E-2,-1.0962792E-2,-3.4833252E-2,-9.624253E-3,3.728268E-3,-2.1296693E-2,3.8417667E-2,6.788645E-3,7.308824E-2,-8.94087E-3,9.625557E-3,-1.3407101E-3,2.4351783E-3,3.4951E-2,-3.0534342E-2,-1.5860245E-2,6.433669E-2],"categories":[],"categories_nodes":[],"categories_segments":[],"categories_sizes":[],"default_left":[0,0,0,0,0,0,0,0,0,0,0,0,0,0,0,0,0,0,0,0,0,0,0,0,0,0,0,0,0,0,0,0,0,0,0,0,0,0,0,0,0,0,0,0,0,0,0,0,0,0,0,0,0,0,0,0,0,0,0,0,0,0,0],"id":7,"left_children":[1,3,5,7,9,11,13,15,17,19,21,23,25,27,29,31,33,35,37,39,41,43,45,47,49,51,53,55,57,59,61,-1,-1,-1,-1,-1,-1,-1,-1,-1,-1,-1,-1,-1,-1,-1,-1,-1,-1,-1,-1,-1,-1,-1,-1,-1,-1,-1,-1,-1,-1,-1,-1],"loss_changes":[1.3218353E2,5.771737E1,9.855884E1,2.6687597E1,5.56622E1,3.387816E1,1.1017997E2,3.818137E1,3.0358133E1,3.5598984E1,4.896215E1,3.428244E1,1.1259388E1,8.219004E1,2.019606E1,3.0806564E1,3.2667465E1,1.9385612E1,2.9302814E1,1.0722366E1,2.2561144E1,1.8117226E1,2.017613E1,3.740809E1,2.896415E1,1.7551723E1,4.5938873E0,2.827301E1,3.0653008E1,1.614137E1,1.5481384E1,0E0,0E0,0E0,0E0,0E0,0E0,0E0,0E0,0E0,0E0,0E0,0E0,0E0,0E0,0E0,0E0,0E0,0E0,0E0,0E0,0E0,0E0,0E0,0E0,0E0,0E0,0E0,0E0,0E0,0E0,0E0,0E0],"parents":[2147483647,0,0,1,1,2,2,3,3,4,4,5,5,6,6,7,7,8,8,9,9,10,10,11,11,12,12,13,13,14,14,15,15,16,16,17,17,18,18,19,19,20,20,21,21,22,22,23,23,24,24,25,25,26,26,27,27,28,28,29,29,30,30],"right_children":[2,4,6,8,10,12,14,16,18,20,22,24,26,28,30,32,34,36,38,40,42,44,46,48,50,52,54,56,58,60,62,-1,-1,-1,-1,-1,-1,-1,-1,-1,-1,-1,-1,-1,-1,-1,-1,-1,-1,-1,-1,-1,-1,-1,-1,-1,-1,-1,-1,-1,-1,-1,-1],"split_conditions":[-7.658333E-2,8.884913E-2,-8.063925E-2,1.2279532E0,-3.4018335E0,1.5692177E0,7.299072E1,-1.1401147E0,-3.5269162E-1,4.583911E1,4.3490532E-1,-1.9975084E-1,7.758688E0,-6.492108E-2,1.9352204E-1,-6.1092224E0,3.6323082E-1,-3.527548E0,5.161045E1,1.4335546E0,1.8728942E0,3.772959E1,3.8354433E-1,2.7116367E-1,7.9756755E-1,-4.0648302E-1,-6.546505E-1,2.5641787E0,8.172556E-2,1.1704852E2,1.6894536E0,-3.9196825E-3,2.9032826E-2,1.5094945E-3,2.0629441E-2,-1.5271424E-2,-5.22373E-2,2.4749476E-3,-3.3495285E-2,2.3675257E-2,4.6200793E-2,1.29940035E-2,-1.265829E-2,-3.3472404E-2,1.7475888E-2,-1.3217689E-3,1.3943927E-2,-1.0962792E-2,-3.4833252E-2,-9.624253E-3,3.728268E-3,-2.1296693E-2,3.8417667E-2,6.788645E-3,7.308824E-2,-8.94087E-3,9.625557E-3,-1.3407101E-3,2.4351783E-3,3.4951E-2,-3.0534342E-2,-1.5860245E-2,6.433669E-2],"split_indices":[3,4,4,6,3,6,7,5,4,7,6,4,3,5,6,3,5,3,7,8,6,7,5,5,6,4,0,3,5,9,6,0,0,0,0,0,0,0,0,0,0,0,0,0,0,0,0,0,0,0,0,0,0,0,0,0,0,0,0,0,0,0,0],"split_type":[0,0,0,0,0,0,0,0,0,0,0,0,0,0,0,0,0,0,0,0,0,0,0,0,0,0,0,0,0,0,0,0,0,0,0,0,0,0,0,0,0,0,0,0,0,0,0,0,0,0,0,0,0,0,0,0,0,0,0,0,0,0,0],"sum_hessian":[5.6760867E4,2.5919547E4,3.0841322E4,2.1957012E4,3.9625344E3,4.229213E3,2.661211E4,2.1092078E4,8.649342E2,1.2207296E3,2.741805E3,4.163903E3,6.5310234E1,2.5157242E4,1.454868E3,3.3027356E2,2.0761805E4,2.4070317E2,6.24231E2,5.773843E2,6.4334534E2,6.582627E2,2.0835422E3,7.015059E2,3.4623967E3,4.8630444E1,1.6679787E1,3.2729404E3,2.18843E4,4.631075E1,1.4085574E3,1.0247577E2,2.2779779E2,2.053694E4,2.2486441E2,1.9802179E2,4.2681374E1,5.6228357E2,6.194744E1,5.179035E2,5.9480812E1,5.424086E2,1.009367E2,1.7041878E1,6.412208E2,1.8392467E3,2.4429543E2,4.3892816E2,2.6257776E2,2.993062E3,4.6933475E2,2.0402565E1,2.8227879E1,3.4691603E0,1.3210627E1,3.0539421E3,2.1899838E2,9.488297E3,1.2396004E4,3.4353474E1,1.1957274E1,1.403476E3,5.081429E0],"tree_param":{"num_deleted":"0","num_feature":"10","num_nodes":"63","size_leaf_vector":"1"}},{"base_weights":[2.8481253E-4,5.126003E-2,-4.2646777E-2,3.3583503E-2,1.8052407E-1,-1.7849521E-1,-2.1115886E-2,-4.8534147E-2,4.8271347E-2,3.085989E-1,8.0166005E-2,-1.987379E-1,3.360559E-1,-1.066555E-2,-2.2653423E-1,-1.1406362E-1,1.08120374E-1,-1.3153976E-2,8.316192E-2,3.6394924E-1,-3.7499163E-2,-3.2234862E-1,1.2553602E-1,-1.3019048E-1,-3.2122496E-1,-3.060208E-2,6.6509616E-1,-1.7790087E-1,3.329354E-3,-3.9293003E-1,4.303828E-2,-1.7706294E-3,-1.5739243E-2,1.3983339E-2,-3.1941966E-3,2.882485E-3,-2.876749E-3,4.4580274E-3,-1.1335435E-2,2.2811199E-2,1.2209105E-2,8.129795E-3,-2.05654E-2,-1.7957004E-2,7.3683664E-2,1.47067355E-2,2.8603727E-3,-2.6318112E-2,-5.713751E-3,-3.0529026E-2,-1.3286612E-2,1.5729215E-2,-1.6107736E-2,4.7815956E-2,6.6270838E-3,-1.2096018E-2,7.145688E-3,1.8214878E-3,-1.5426377E-3,-1.7122155E-2,-4.2072386E-2,1.7754152E-2,-9.923342E-3],"categories":[],"categories_nodes":[],"categories_segments":[],"categories_sizes":[],"default_left":[0,0,0,0,0,0,0,0,0,0,0,0,0,0,0,0,0,0,0,0,0,0,0,0,0,0,0,0,0,0,0,0,0,0,0,0,0,0,0,0,0,0,0,0,0,0,0,0,0,0,0,0,0,0,0,0,0,0,0,0,0,0,0],"id":8,"left_children":[1,3,5,7,9,11,13,15,17,19,21,23,25,27,29,31,33,35,37,39,41,43,45,47,49,51,53,55,57,59,61,-1,-1,-1,-1,-1,-1,-1,-1,-1,-1,-1,-1,-1,-1,-1,-1,-1,-1,-1,-1,-1,-1,-1,-1,-1,-1,-1,-1,-1,-1,-1,-1],"loss_changes":[1.2444439E2,5.9394943E1,9.0281715E1,2.758734E1,4.016903E1,4.4051193E1,5.7197617E1,3.5639275E1,4.158082E1,2.6325089E1,3.2083458E1,3.4076874E1,1.9349052E1,5.9346706E1,5.7875626E1,3.8626717E1,3.023557E1,2.209061E1,2.301944E1,1.2975876E1,1.4299205E1,1.2292524E1,1.8157259E1,1.637873E1,2.3239883E1,7.8234587E0,1.2975571E1,4.0251045E1,2.6476492E1,1.7774628E1,3.7239037E1,0E0,0E0,0E0,0E0,0E0,0E0,0E0,0E0,0E0,0E0,0E0,0E0,0E0,0E0,0E0,0E0,0E0,0E0,0E0,0E0,0E0,0E0,0E0,0E0,0E0,0E0,0E0,0E0,0E0,0E0,0E0,0E0],"parents":[2147483647,0,0,1,1,2,2,3,3,4,4,5,5,6,6,7,7,8,8,9,9,10,10,11,11,12,12,13,13,14,14,15,15,16,16,17,17,18,18,19,19,20,20,21,21,22,22,23,23,24,24,25,25,26,26,27,27,28,28,29,29,30,30],"right_children":[2,4,6,8,10,12,14,16,18,20,22,24,26,28,30,32,34,36,38,40,42,44,46,48,50,52,54,56,58,60,62,-1,-1,-1,-1,-1,-1,-1,-1,-1,-1,-1,-1,-1,-1,-1,-1,-1,-1,-1,-1,-1,-1,-1,-1,-1,-1,-1,-1,-1,-1,-1,-1],"split_conditions":[-7.658333E-2,1.0826585E-1,-8.063925E-2,2.1723486E-1,-2.8218746E0,1.3210765E0,7.7141404E-1,-2.213502E-1,-2.413163E-1,8.801958E-1,-1.1412256E-1,2.6291091E0,4.6745067E0,-1.12190045E-1,8.9943135E-1,-3.0131731E-2,-2.3412849E-3,5.286411E-1,1.1480851E0,-1.228193E0,1.8728942E0,1.8728942E0,-1.8369002E0,-1.3667475E0,-2.2070235E-1,-1.0828352E0,6.6707486E-1,7.5604093E-1,1.042864E-2,1.2507726E0,1.6058467E-1,-1.7706294E-3,-1.5739243E-2,1.3983339E-2,-3.1941966E-3,2.882485E-3,-2.876749E-3,4.4580274E-3,-1.1335435E-2,2.2811199E-2,1.2209105E-2,8.129795E-3,-2.05654E-2,-1.7957004E-2,7.3683664E-2,1.47067355E-2,2.8603727E-3,-2.6318112E-2,-5.713751E-3,-3.0529026E-2,-1.3286612E-2,1.5729215E-2,-1.6107736E-2,4.7815956E-2,6.6270838E-3,-1.2096018E-2,7.145688E-3,1.8214878E-3,-1.5426377E-3,-1.7122155E-2,-4.2072386E-2,1.7754152E-2,-9.923342E-3],"split_indices":[3,4,4,6,3,6,5,3,5,0,1,3,3,5,6,2,4,6,6,2,6,6,3,1,4,2,5,6,4,5,4,0,0,0,0,0,0,0,0,0,0,0,0,0,0,0,0,0,0,0,0,0,0,0,0,0,0,0,0,0,0,0,0],"split_type":[0,0,0,0,0,0,0,0,0,0,0,0,0,0,0,0,0,0,0,0,0,0,0,0,0,0,0,0,0,0,0,0,0,0,0,0,0,0,0,0,0,0,0,0,0,0,0,0,0,0,0,0,0,0,0,0,0,0,0,0,0,0,0],"sum_hessian":[5.6862242E4,2.5995752E4,3.086649E4,2.2869645E4,3.1261064E3,4.221813E3,2.6644678E4,3.4695547E3,1.940009E4,1.3724894E3,1.7536172E3,4.0626018E3,1.5921101E2,2.5355793E4,1.2888844E3,2.446459E3,1.02309576E3,7.0279355E3,1.2372154E4,1.1832107E3,1.8927863E2,1.770203E2,1.5765968E3,2.6061724E3,1.4564294E3,7.573006E1,8.348095E1,1.9571127E3,2.339868E4,7.966736E2,4.922108E2,1.7585581E3,6.8790076E2,5.1191632E2,5.111794E2,2.7077698E3,4.320166E3,1.2137895E4,2.3425923E2,6.667236E2,5.164872E2,1.2365352E2,6.562511E1,1.7425081E2,2.769487E0,4.5372922E2,1.1228677E3,9.941578E1,2.5067566E3,2.3275795E2,1.2236715E3,3.4639416E1,4.109064E1,5.345423E1,3.0026716E1,1.6317402E3,3.2537253E2,1.1887398E4,1.1511282E4,7.176549E2,7.901866E1,2.1453867E2,2.7767212E2],"tree_param":{"num_deleted":"0","num_feature":"10","num_nodes":"63","size_leaf_vector":"1"}},{"base_weights":[3.3957526E-4,4.4226035E-2,-4.9148478E-2,3.8804237E-2,2.4261792E-1,-3.5712752E-2,-2.824396E-1,5.6623936E-2,-5.1711234E-3,2.9927632E-1,-5.3140306E-1,-9.5982395E-2,1.3612112E-2,-5.2377826E-1,-2.5131324E-1,4.8238575E-2,4.2687744E-1,1.14895485E-1,-2.2943757E-2,4.4675395E-1,6.738964E-2,-1.0264319E0,-1.0830803E-1,-2.0662397E-1,-7.018026E-2,2.9507412E-2,-1.9368242E-1,3.7130424E-1,-5.73994E-1,-4.193383E-1,-2.0516488E-1,8.165174E-3,2.0110433E-3,1.6918872E-2,3.809429E-2,7.3997275E-4,1.4206792E-2,-1.7444448E-3,6.527837E-3,-2.318841E-3,2.8181413E-2,5.33036E-2,1.4256829E-3,3.878351E-2,-6.1056E-2,6.9292806E-2,-1.4092837E-2,-1.1311362E-2,2.4091937E-2,-2.4236306E-3,-1.0834391E-2,3.6352008E-4,8.600391E-3,3.581982E-2,-1.1031623E-2,-2.966888E-2,5.491618E-2,-3.1627156E-2,1.5977763E-2,6.358772E-4,-2.6555423E-2,4.584512E-3,-1.1525098E-2],"categories":[],"categories_nodes":[],"categories_segments":[],"categories_sizes":[],"default_left":[0,0,0,0,0,0,0,0,0,0,0,0,0,0,0,0,0,0,0,0,0,0,0,0,0,0,0,0,0,0,0,0,0,0,0,0,0,0,0,0,0,0,0,0,0,0,0,0,0,0,0,0,0,0,0,0,0,0,0,0,0,0,0],"id":9,"left_children":[1,3,5,7,9,11,13,15,17,19,21,23,25,27,29,31,33,35,37,39,41,43,45,47,49,51,53,55,57,59,61,-1,-1,-1,-1,-1,-1,-1,-1,-1,-1,-1,-1,-1,-1,-1,-1,-1,-1,-1,-1,-1,-1,-1,-1,-1,-1,-1,-1,-1,-1,-1,-1],"loss_changes":[1.2355325E2,3.2421757E1,8.379779E1,2.2999512E1,3.5324738E1,7.5162125E1,1.0804955E1,6.482518E1,1.8064854E1,2.5543678E1,1.14194565E1,3.2470505E1,4.582209E1,7.6472855E0,9.928268E0,1.8836521E1,1.3452171E1,1.84869E1,1.3525175E1,2.6360641E1,1.1302145E1,9.806816E0,8.377727E0,2.9143593E1,2.9340164E1,4.092475E1,2.4449589E1,7.239701E0,8.4160385E0,1.3398865E1,7.6566467E0,0E0,0E0,0E0,0E0,0E0,0E0,0E0,0E0,0E0,0E0,0E0,0E0,0E0,0E0,0E0,0E0,0E0,0E0,0E0,0E0,0E0,0E0,0E0,0E0,0E0,0E0,0E0,0E0,0E0,0E0,0E0,0E0],"parents":[2147483647,0,0,1,1,2,2,3,3,4,4,5,5,6,6,7,7,8,8,9,9,10,10,11,11,12,12,13,13,14,14,15,15,16,16,17,17,18,18,19,19,20,20,21,21,22,22,23,23,24,24,25,25,26,26,27,27,28,28,29,29,30,30],"right_children":[2,4,6,8,10,12,14,16,18,20,22,24,26,28,30,32,34,36,38,40,42,44,46,48,50,52,54,56,58,60,62,-1,-1,-1,-1,-1,-1,-1,-1,-1,-1,-1,-1,-1,-1,-1,-1,-1,-1,-1,-1,-1,-1,-1,-1,-1,-1,-1,-1,-1,-1,-1,-1],"split_conditions":[1.7142458E-1,3.4377107E-1,7.299072E1,-5.1441196E-2,1.0982707E0,5.3773026E1,-4.622916E1,5.3272755E1,-2.2766266E-2,-6.725945E-1,5.8893143E1,-1.155257E-1,7.7141404E-1,8.328002E-1,5.053684E-1,-9.577334E-1,5.5686584E1,-5.1241454E-2,6.2858887E1,2.3138136E-1,-2.5866039E0,6.25336E-1,2.3942375E0,4.4764047E0,2.6291091E0,8.449084E-1,-6.6771665E0,1.5765063E-1,1.9561993E0,2.6475817E-1,-3.4115064E0,8.165174E-3,2.0110433E-3,1.6918872E-2,3.809429E-2,7.3997275E-4,1.4206792E-2,-1.7444448E-3,6.527837E-3,-2.318841E-3,2.8181413E-2,5.33036E-2,1.4256829E-3,3.878351E-2,-6.1056E-2,6.9292806E-2,-1.4092837E-2,-1.1311362E-2,2.4091937E-2,-2.4236306E-3,-1.0834391E-2,3.6352008E-4,8.600391E-3,3.581982E-2,-1.1031623E-2,-2.966888E-2,5.491618E-2,-3.1627156E-2,1.5977763E-2,6.358772E-4,-2.6555423E-2,4.584512E-3,-1.1525098E-2],"split_indices":[3,5,7,2,5,7,9,7,1,3,7,5,5,2,0,5,7,3,7,1,8,2,2,3,3,1,8,5,8,5,8,0,0,0,0,0,0,0,0,0,0,0,0,0,0,0,0,0,0,0,0,0,0,0,0,0,0,0,0,0,0,0,0],"split_type":[0,0,0,0,0,0,0,0,0,0,0,0,0,0,0,0,0,0,0,0,0,0,0,0,0,0,0,0,0,0,0,0,0,0,0,0,0,0,0,0,0,0,0,0,0,0,0,0,0,0,0,0,0,0,0,0,0,0,0,0,0,0,0],"sum_hessian":[5.688634E4,3.0149549E4,2.6736791E4,2.9348682E4,8.008668E2,2.5281906E4,1.454885E3,2.0885266E4,8.463416E3,7.4681335E2,5.4053448E1,1.1378125E4,1.3903781E4,1.6439758E2,1.2904874E3,2.0423846E4,4.614212E2,1.0905463E3,7.37287E3,4.5592377E2,2.9088962E2,2.4252073E1,2.9801374E1,2.1503303E3,9.227795E3,1.2914368E4,9.894132E2,8.393388E0,1.560042E2,2.7632144E2,1.01416595E3,1.3291656E3,1.909468E4,3.6658862E2,9.483259E1,6.859396E2,4.0460675E2,6.841267E3,5.316028E2,8.746859E1,3.6845517E2,9.909248E0,2.8098038E2,2.0736313E0,2.2178442E1,2.3743196E0,2.7427053E1,2.09145E3,5.8880444E1,8.0381357E3,1.1896593E3,1.1172037E4,1.7423313E3,2.7720896E1,9.616923E2,3.6861103E0,4.7072773E0,1.4668489E2,9.319309E0,5.6973263E1,2.1934818E2,7.954772E1,9.346182E2],"tree_param":{"num_deleted":"0","num_feature":"10","num_nodes":"63","size_leaf_vector":"1"}},{"base_weights":[3.4541439E-3,4.5941986E-2,-4.461329E-2,2.9144537E-2,1.500828E-1,-3.1849947E-2,-2.6441607E-1,1.8005866E-1,2.0890592E-2,3.2968423E-1,7.6172054E-2,-1.6712008E-1,-6.855604E-3,-8.2776435E-3,-3.059185E-1,-4.6939442E-1,1.9952391E-1,-6.4495616E-2,4.069695E-2,4.3073356E-1,1.4448732E-1,-9.356701E-1,8.4179096E-2,-1.2356677E-1,-3.0611837E-1,-9.5896795E-2,3.669892E-2,1.7587785E-1,-3.1940496E-1,-2.3837477E-1,-3.9511773E-1,1.00236675E-2,-3.5584286E-2,5.765862E-3,1.5178079E-2,4.794756E-3,-4.608775E-3,-1.4535329E-2,2.195751E-3,2.2946313E-2,-1.0417561E-2,-4.9310874E-2,8.8516E-3,1.1104674E-2,-6.479626E-2,6.742136E-3,-4.582744E-3,-2.6127437E-2,-5.397418E-3,-1.6882362E-2,9.136896E-3,-1.0448365E-2,-3.24094E-3,1.919307E-3,-3.6882207E-2,6.160712E-2,6.4187623E-3,-1.9235855E-2,3.4559015E-2,-2.3549087E-2,-7.4430252E-3,-2.2263467E-2,4.206187E-3],"categories":[],"categories_nodes":[],"categories_segments":[],"categories_sizes":[],"default_left":[0,0,0,0,0,0,0,0,0,0,0,0,0,0,0,0,0,0,0,0,0,0,0,0,0,0,0,0,0,0,0,0,0,0,0,0,0,0,0,0,0,0,0,0,0,0,0,0,0,0,0,0,0,0,0,0,0,0,0,0,0,0,0],"id":10,"left_children":[1,3,5,7,9,11,13,15,17,19,21,23,25,27,29,31,33,35,37,39,41,43,45,47,49,51,53,55,57,59,61,-1,-1,-1,-1,-1,-1,-1,-1,-1,-1,-1,-1,-1,-1,-1,-1,-1,-1,-1,-1,-1,-1,-1,-1,-1,-1,-1,-1,-1,-1,-1,-1],"loss_changes":[1.1611584E2,5.2788662E1,7.483008E1,3.2369156E1,5.5614548E1,8.52455E1,1.5559029E1,1.7129425E1,4.1677723E1,2.2800934E1,2.4147491E1,2.3766937E1,8.253959E1,1.1810298E1,7.4955063E0,6.5556364E0,1.1433281E1,2.0609615E1,2.1345837E1,1.43280945E1,1.610051E1,1.0050486E1,2.6277477E1,1.8611282E1,1.4510948E1,2.4552933E1,1.8701086E1,6.3402786E0,5.3239555E0,1.4909134E1,1.30479965E1,0E0,0E0,0E0,0E0,0E0,0E0,0E0,0E0,0E0,0E0,0E0,0E0,0E0,0E0,0E0,0E0,0E0,0E0,0E0,0E0,0E0,0E0,0E0,0E0,0E0,0E0,0E0,0E0,0E0,0E0,0E0,0E0],"parents":[2147483647,0,0,1,1,2,2,3,3,4,4,5,5,6,6,7,7,8,8,9,9,10,10,11,11,12,12,13,13,14,14,15,15,16,16,17,17,18,18,19,19,20,20,21,21,22,22,23,23,24,24,25,25,26,26,27,27,28,28,29,29,30,30],"right_children":[2,4,6,8,10,12,14,16,18,20,22,24,26,28,30,32,34,36,38,40,42,44,46,48,50,52,54,56,58,60,62,-1,-1,-1,-1,-1,-1,-1,-1,-1,-1,-1,-1,-1,-1,-1,-1,-1,-1,-1,-1,-1,-1,-1,-1,-1,-1,-1,-1,-1,-1,-1,-1],"split_conditions":[1.7142458E-1,8.884913E-2,7.299072E1,2.721175E1,-3.4018335E0,-8.063925E-2,2.8548482E-1,-1.0086784E1,-2.9576585E-1,-1.0508841E0,3.4839405E1,3.949613E-1,3.5965677E-2,1.12468285E2,2.0546679E-1,-2.0291832E1,-2.0983934E0,-9.577334E-1,-2.3291059E-1,1.0216906E0,-1.3122357E-1,-1.0374845E0,-5.18386E-1,3.3274696E1,9.148596E0,-1.12190045E-1,5.023608E-1,4.7057608E-1,2.019516E0,4.720108E-1,9.148596E0,1.00236675E-2,-3.5584286E-2,5.765862E-3,1.5178079E-2,4.794756E-3,-4.608775E-3,-1.4535329E-2,2.195751E-3,2.2946313E-2,-1.0417561E-2,-4.9310874E-2,8.8516E-3,1.1104674E-2,-6.479626E-2,6.742136E-3,-4.582744E-3,-2.6127437E-2,-5.397418E-3,-1.6882362E-2,9.136896E-3,-1.0448365E-2,-3.24094E-3,1.919307E-3,-3.6882207E-2,6.160712E-2,6.4187623E-3,-1.9235855E-2,3.4559015E-2,-2.3549087E-2,-7.4430252E-3,-2.2263467E-2,4.206187E-3],"split_indices":[3,4,7,7,3,4,5,3,5,2,7,5,5,9,4,9,2,5,4,0,1,5,3,7,3,5,4,2,0,0,3,0,0,0,0,0,0,0,0,0,0,0,0,0,0,0,0,0,0,0,0,0,0,0,0,0,0,0,0,0,0,0,0],"split_type":[0,0,0,0,0,0,0,0,0,0,0,0,0,0,0,0,0,0,0,0,0,0,0,0,0,0,0,0,0,0,0,0,0,0,0,0,0,0,0,0,0,0,0,0,0,0,0,0,0,0,0,0,0,0,0,0,0,0,0,0,0,0,0],"sum_hessian":[5.6853938E4,3.0178527E4,2.6675408E4,2.598805E4,4.1904775E3,2.521253E4,1.4628778E3,1.3465775E3,2.4641473E4,1.2207125E3,2.969765E3,3.9311794E3,2.128135E4,2.0414801E2,1.2587297E3,3.8512253E1,1.3080652E3,4.639236E3,2.0002238E4,7.8892444E2,4.3178806E2,2.2406614E1,2.9473584E3,2.9947134E3,9.3646594E2,6.99002E3,1.429133E4,1.28515E2,7.5633E1,7.184072E2,5.403225E2,1.0275621E1,2.8236631E1,7.240982E2,5.83967E2,6.8243134E2,3.9568044E3,1.9150343E2,1.9810734E4,7.558621E2,3.306231E1,1.1260465E1,4.205276E2,5.408536E0,1.699808E1,2.2882659E3,6.590925E2,1.1159121E2,2.8831223E3,8.800183E2,5.6447643E1,1.5057941E3,5.4842256E3,1.4261207E4,3.0123432E1,4.457605E0,1.24057396E2,7.1623436E1,4.009569E0,1.9845393E2,5.1995325E2,4.891997E2,5.1122814E1],"tree_param":{"num_deleted":"0","num_feature":"10","num_nodes":"63","size_leaf_vector":"1"}},{"base_weights":[-4.918894E-3,4.005336E-2,-4.7111444E-2,2.8989393E-2,1.8061726E-1,-1.6768909E-1,-2.7402414E-2,3.4751754E-2,-1.1864758E-1,2.6712516E-1,-5.7070367E-2,-1.1306236E-1,-2.6892033E-1,-2.234866E-2,-3.101E-1,3.089245E-2,3.7687123E-1,-5.951565E-3,-4.180386E-1,3.3126488E-1,-1.4106756E-1,2.8494064E-2,-4.3484238E-1,-1.6920105E-1,3.150614E-2,-3.1002837E-1,5.488727E-1,-2.5087252E-2,6.03369E-1,9.2956804E-2,-3.924424E-1,3.7781816E-2,1.4864363E-3,2.315973E-2,-1.6749715E-2,-1.49868075E-2,7.014902E-3,-4.324669E-2,-1.593153E-2,3.9722163E-2,1.5216484E-2,2.2305973E-2,-1.3209102E-2,-1.588388E-2,7.037654E-3,-5.9815593E-2,-1.5349306E-2,-7.488159E-3,-3.0503213E-2,6.383553E-2,8.7382965E-4,-1.5386477E-3,-1.8073196E-2,1.634605E-2,5.1029164E-2,-5.434781E-3,-3.402944E-4,-3.3559587E-2,3.3817317E-2,-2.4657583E-2,2.522696E-2,-2.3593286E-2,1.36120645E-2],"categories":[],"categories_nodes":[],"categories_segments":[],"categories_sizes":[],"default_left":[0,0,0,0,0,0,0,0,0,0,0,0,0,0,0,0,0,0,0,0,0,0,0,0,0,0,0,0,0,0,0,0,0,0,0,0,0,0,0,0,0,0,0,0,0,0,0,0,0,0,0,0,0,0,0,0,0,0,0,0,0,0,0],"id":11,"left_children":[1,3,5,7,9,11,13,15,17,19,21,23,25,27,29,31,33,35,37,39,41,43,45,47,49,51,53,55,57,59,61,-1,-1,-1,-1,-1,-1,-1,-1,-1,-1,-1,-1,-1,-1,-1,-1,-1,-1,-1,-1,-1,-1,-1,-1,-1,-1,-1,-1,-1,-1,-1,-1],"loss_changes":[1.07526184E2,4.265409E1,6.94768E1,2.1638287E1,4.1166412E1,2.268312E1,3.589715E1,3.230428E1,3.223578E1,3.8467285E1,1.730104E1,2.1670746E1,4.8541946E1,4.2324574E1,1.4682446E1,2.0390772E1,1.6926735E1,2.9911835E1,1.1332138E1,1.5583817E1,1.4574318E1,1.7027845E1,9.255066E0,1.6387592E1,1.3036538E1,1.9676346E1,6.9142113E0,3.7575203E1,1.0465317E1,1.8502584E1,1.9483105E1,0E0,0E0,0E0,0E0,0E0,0E0,0E0,0E0,0E0,0E0,0E0,0E0,0E0,0E0,0E0,0E0,0E0,0E0,0E0,0E0,0E0,0E0,0E0,0E0,0E0,0E0,0E0,0E0,0E0,0E0,0E0,0E0],"parents":[2147483647,0,0,1,1,2,2,3,3,4,4,5,5,6,6,7,7,8,8,9,9,10,10,11,11,12,12,13,13,14,14,15,15,16,16,17,17,18,18,19,19,20,20,21,21,22,22,23,23,24,24,25,25,26,26,27,27,28,28,29,29,30,30],"right_children":[2,4,6,8,10,12,14,16,18,20,22,24,26,28,30,32,34,36,38,40,42,44,46,48,50,52,54,56,58,60,62,-1,-1,-1,-1,-1,-1,-1,-1,-1,-1,-1,-1,-1,-1,-1,-1,-1,-1,-1,-1,-1,-1,-1,-1,-1,-1,-1,-1,-1,-1,-1,-1],"split_conditions":[1.252457E-2,1.4472787E-1,-8.063925E-2,1.2279532E0,-1.5009637E0,2.8315206E0,3.091091E-1,8.9654154E-1,-4.1378326E0,1.6894536E0,9.669864E-1,-7.622937E-2,1.4594078E0,1.382248E0,1.990734E0,-1.1109635E1,1.2764579E-1,-2.8798223E-1,-3.5269162E-1,4.5944017E-1,-3.4115064E0,-9.226794E-3,1.0337245E0,1.0594207E0,-4.0536637E0,2.6974005E-1,-2.6584002E-1,-1.4785895E-2,2.8315482E-1,1.1793029E0,2.6435828E0,3.7781816E-2,1.4864363E-3,2.315973E-2,-1.6749715E-2,-1.49868075E-2,7.014902E-3,-4.324669E-2,-1.593153E-2,3.9722163E-2,1.5216484E-2,2.2305973E-2,-1.3209102E-2,-1.588388E-2,7.037654E-3,-5.9815593E-2,-1.5349306E-2,-7.488159E-3,-3.0503213E-2,6.383553E-2,8.7382965E-4,-1.5386477E-3,-1.8073196E-2,1.634605E-2,5.1029164E-2,-5.434781E-3,-3.402944E-4,-3.3559587E-2,3.3817317E-2,-2.4657583E-2,2.522696E-2,-2.3593286E-2,1.36120645E-2],"split_indices":[3,4,4,6,3,3,4,2,3,6,6,1,6,6,2,8,4,4,4,6,8,2,6,6,8,2,4,2,3,3,8,0,0,0,0,0,0,0,0,0,0,0,0,0,0,0,0,0,0,0,0,0,0,0,0,0,0,0,0,0,0,0,0],"split_type":[0,0,0,0,0,0,0,0,0,0,0,0,0,0,0,0,0,0,0,0,0,0,0,0,0,0,0,0,0,0,0,0,0,0,0,0,0,0,0,0,0,0,0,0,0,0,0,0,0,0,0,0,0,0,0,0,0,0,0,0,0,0,0],"sum_hessian":[5.666548E4,2.7429229E4,2.9236252E4,2.5428893E4,2.0003346E3,4.106379E3,2.5129873E4,2.4474406E4,9.5448615E2,1.4664772E3,5.338574E2,2.6685076E3,1.4378713E3,2.4689578E4,4.4029398E2,2.4202479E4,2.719275E2,6.941978E2,2.6028833E2,1.2675018E3,1.9897537E2,4.3602368E2,9.783372E1,1.9219916E3,7.4651605E2,1.3696443E3,6.822705E1,2.4582945E4,1.0663285E2,7.466897E1,3.65625E2,3.776031E1,2.4164719E4,2.4283034E2,2.9097157E1,2.3037454E2,4.6382327E2,4.5962055E1,2.1432626E2,6.8092255E1,1.1994095E3,3.403307E1,1.6494229E2,1.06323975E2,3.296997E2,1.2863901E1,8.496982E1,1.8421117E3,7.987982E1,7.314448E0,7.392016E2,2.1328253E2,1.1563617E3,4.7547714E1,2.067934E1,4.4098594E3,2.0173086E4,5.330878E0,1.0130198E2,3.0721804E1,4.3947163E1,3.268586E2,3.8766373E1],"tree_param":{"num_deleted":"0","num_feature":"10","num_nodes":"63","size_leaf_vector":"1"}},{"base_weights":[2.9982088E-4,8.193518E-3,-2.2612804E-1,4.2924564E-2,-2.57632E-2,-3.808837E-1,-1.5283424E-1,3.7914325E-2,3.253615E-1,-1.2402616E-1,-3.544223E-3,-4.440762E-1,4.2943612E-1,-3.1885896E-2,-3.384909E-1,2.9509867E-2,1.57531E-1,-7.410842E-1,3.9460704E-1,-9.534623E-2,-2.8856176E-1,-4.572623E-2,5.3530924E-2,-1.0307035E0,-3.604599E-1,1.3941555E0,1.7645578E-1,2.4058768E-1,-1.5263323E-1,-5.520714E-1,-1.4651872E-1,-3.4131226E-4,2.5186685E-3,1.454367E-2,-9.1345527E-4,-5.0919545E-3,-7.796378E-2,2.6153589E-2,4.421677E-3,-1.4737408E-2,-3.7237685E-3,-1.7290063E-2,-7.0159226E-3,-4.938105E-4,-5.472844E-3,3.8956532E-3,-9.897781E-3,-1.7673511E-2,-5.9709687E-2,-2.9471598E-3,-2.8865043E-2,7.745363E-2,1.2075546E-2,-1.841687E-2,3.231427E-2,-1.3895402E-2,1.7688394E-2,-1.2001206E-2,1.6206987E-2,1.6800595E-2,-2.982347E-2,2.9506318E-3,-2.7047778E-2],"categories":[],"categories_nodes":[],"categories_segments":[],"categories_sizes":[],"default_left":[0,0,0,0,0,0,0,0,0,0,0,0,0,0,0,0,0,0,0,0,0,0,0,0,0,0,0,0,0,0,0,0,0,0,0,0,0,0,0,0,0,0,0,0,0,0,0,0,0,0,0,0,0,0,0,0,0,0,0,0,0,0,0],"id":12,"left_children":[1,3,5,7,9,11,13,15,17,19,21,23,25,27,29,31,33,35,37,39,41,43,45,47,49,51,53,55,57,59,61,-1,-1,-1,-1,-1,-1,-1,-1,-1,-1,-1,-1,-1,-1,-1,-1,-1,-1,-1,-1,-1,-1,-1,-1,-1,-1,-1,-1,-1,-1,-1,-1],"loss_changes":[1.016378E2,6.480572E1,2.167015E1,3.8428642E1,6.066263E1,3.1682724E1,2.921718E1,2.6830124E1,3.524867E1,2.4152039E1,5.4562202E1,2.7637192E1,1.073639E1,2.6004183E1,2.0967606E1,1.8908691E1,4.1078175E1,1.5118444E1,1.746273E1,1.8143505E1,6.4011116E0,2.9773052E1,5.9072342E1,7.405632E0,3.2742012E1,1.2693691E0,9.656299E0,1.4343854E1,2.2890602E1,9.767563E0,2.2059772E1,0E0,0E0,0E0,0E0,0E0,0E0,0E0,0E0,0E0,0E0,0E0,0E0,0E0,0E0,0E0,0E0,0E0,0E0,0E0,0E0,0E0,0E0,0E0,0E0,0E0,0E0,0E0,0E0,0E0,0E0,0E0,0E0],"parents":[2147483647,0,0,1,1,2,2,3,3,4,4,5,5,6,6,7,7,8,8,9,9,10,10,11,11,12,12,13,13,14,14,15,15,16,16,17,17,18,18,19,19,20,20,21,21,22,22,23,23,24,24,25,25,26,26,27,27,28,28,29,29,30,30],"right_children":[2,4,6,8,10,12,14,16,18,20,22,24,26,28,30,32,34,36,38,40,42,44,46,48,50,52,54,56,58,60,62,-1,-1,-1,-1,-1,-1,-1,-1,-1,-1,-1,-1,-1,-1,-1,-1,-1,-1,-1,-1,-1,-1,-1,-1,-1,-1,-1,-1,-1,-1,-1,-1],"split_conditions":[7.3160124E-1,1.5693947E-4,2.6286647E-1,3.8354433E-1,-6.276974E-2,9.148596E0,2.2926976E-1,1.4472787E-1,-1.6057941E-1,3.949613E-1,1.1802086E-1,-2.0985141E-1,-4.0648302E-1,6.719269E1,1.2247535E0,-1.838401E-1,-3.9455056E-1,4.9623146E1,-6.1228675E-1,3.698916E1,1.7693008E0,1.6206421E-2,7.299072E1,1.1793029E0,6.1517506E1,6.0366844E1,6.194325E1,-8.844572E-2,1.1154298E0,1.990734E0,5.023608E-1,-3.4131226E-4,2.5186685E-3,1.454367E-2,-9.1345527E-4,-5.0919545E-3,-7.796378E-2,2.6153589E-2,4.421677E-3,-1.4737408E-2,-3.7237685E-3,-1.7290063E-2,-7.0159226E-3,-4.938105E-4,-5.472844E-3,3.8956532E-3,-9.897781E-3,-1.7673511E-2,-5.9709687E-2,-2.9471598E-3,-2.8865043E-2,7.745363E-2,1.2075546E-2,-1.841687E-2,3.231427E-2,-1.3895402E-2,1.7688394E-2,-1.2001206E-2,1.6206987E-2,1.6800595E-2,-2.982347E-2,2.9506318E-3,-2.7047778E-2],"split_indices":[5,3,0,5,4,3,4,4,4,5,5,4,4,7,0,5,2,7,3,7,2,4,7,3,7,7,7,4,0,2,4,0,0,0,0,0,0,0,0,0,0,0,0,0,0,0,0,0,0,0,0,0,0,0,0,0,0,0,0,0,0,0,0],"split_type":[0,0,0,0,0,0,0,0,0,0,0,0,0,0,0,0,0,0,0,0,0,0,0,0,0,0,0,0,0,0,0,0,0,0,0,0,0,0,0,0,0,0,0,0,0,0,0,0,0,0,0,0,0,0,0,0,0,0,0,0,0,0,0],"sum_hessian":[5.6862953E4,5.4948316E4,1.9146368E3,2.7164307E4,2.7784008E4,6.140047E2,1.3006322E3,2.6691945E4,4.7236264E2,5.1230127E3,2.2660996E4,5.70005E2,4.399968E1,7.8827344E2,5.1235876E2,2.494081E4,1.7511346E3,2.8209402E1,4.4415323E2,4.3639233E3,7.59089E2,1.3030709E4,9.630287E3,6.969799E1,5.00307E2,8.203894E0,3.5795788E1,2.4175233E2,5.4652106E2,2.416419E2,2.7071683E2,9.097381E3,1.5843429E4,9.954456E2,7.556891E2,1.6467762E1,1.1741639E1,3.1237717E2,1.3177608E2,4.1223865E2,3.9516848E3,5.466749E2,2.1241406E2,8.340265E3,4.690444E3,8.779762E3,8.505257E2,1.4168619E1,5.5529373E1,2.0982198E2,2.9048502E2,6.928733E0,1.2751606E0,1.667557E1,1.9120218E1,4.305506E1,1.9869728E2,4.6228278E2,8.423831E1,1.1192505E1,2.304494E2,1.7853633E2,9.218051E1],"tree_param":{"num_deleted":"0","num_feature":"10","num_nodes":"63","size_leaf_vector":"1"}},{"base_weights":[-2.3530112E-3,4.0956917E-3,-2.4356121E-1,4.4655927E-2,-2.165823E-2,1.5223016E-1,-2.7502665E-1,3.2818396E-2,1.9603702E-1,-1.5516806E-1,-3.1494964E-3,2.6794207E-1,-4.3101954E-1,4.8369914E-3,-3.195664E-1,2.5225516E-2,3.0860522E-1,2.1862829E-1,-5.774522E-1,-1.3848319E-2,-1.8617976E-1,-3.141455E-2,3.1688865E-2,-4.7158232E-1,3.5055143E-1,5.652932E-2,-7.60098E-1,-8.227696E-2,8.684792E-1,-2.9589424E-1,-6.874732E-1,-1.1358361E-3,2.617984E-3,2.811265E-2,4.8175873E-3,1.6235447E-2,5.4061264E-3,-5.2884955E-2,-2.543114E-3,-2.0934997E-2,1.318935E-3,-8.28806E-3,-2.315043E-2,1.3438701E-3,-4.0119444E-3,2.1463905E-3,-7.4082017E-3,3.5090446E-2,-4.4343825E-2,9.070478E-3,4.026266E-2,-5.8916356E-2,-6.674081E-3,3.1515402E-3,-2.3049599E-2,6.496214E-2,1.2652789E-2,-1.6955083E-2,5.433355E-3,-5.1949676E-2,1.0956661E-3],"categories":[],"categories_nodes":[],"categories_segments":[],"categories_sizes":[],"default_left":[0,0,0,0,0,0,0,0,0,0,0,0,0,0,0,0,0,0,0,0,0,0,0,0,0,0,0,0,0,0,0,0,0,0,0,0,0,0,0,0,0,0,0,0,0,0,0,0,0,0,0,0,0,0,0,0,0,0,0,0,0],"id":13,"left_children":[1,3,5,7,9,11,13,15,17,19,21,23,25,27,29,31,33,35,37,39,41,43,45,47,49,-1,51,53,55,57,59,-1,-1,-1,-1,-1,-1,-1,-1,-1,-1,-1,-1,-1,-1,-1,-1,-1,-1,-1,-1,-1,-1,-1,-1,-1,-1,-1,-1,-1,-1],"loss_changes":[8.8186E1,5.7680737E1,1.8426598E1,3.8422306E1,8.3458374E1,7.4961977E0,1.705223E1,4.1643814E1,2.7300228E1,1.8018837E1,2.921033E1,5.7780337E0,1.036017E1,1.42752285E1,1.007415E1,2.5184656E1,2.8633987E1,1.7685768E1,1.1176043E1,1.2079978E1,1.8983353E1,4.6611954E1,2.6864147E1,5.3287954E0,6.2539682E0,0E0,4.001254E0,9.516633E0,4.2799473E0,1.9448494E1,1.7623932E1,0E0,0E0,0E0,0E0,0E0,0E0,0E0,0E0,0E0,0E0,0E0,0E0,0E0,0E0,0E0,0E0,0E0,0E0,0E0,0E0,0E0,0E0,0E0,0E0,0E0,0E0,0E0,0E0,0E0,0E0],"parents":[2147483647,0,0,1,1,2,2,3,3,4,4,5,5,6,6,7,7,8,8,9,9,10,10,11,11,12,12,13,13,14,14,15,15,16,16,17,17,18,18,19,19,20,20,21,21,22,22,23,23,24,24,26,26,27,27,28,28,29,29,30,30],"right_children":[2,4,6,8,10,12,14,16,18,20,22,24,26,28,30,32,34,36,38,40,42,44,46,48,50,-1,52,54,56,58,60,-1,-1,-1,-1,-1,-1,-1,-1,-1,-1,-1,-1,-1,-1,-1,-1,-1,-1,-1,-1,-1,-1,-1,-1,-1,-1,-1,-1,-1,-1],"split_conditions":[7.299072E1,-3.5334408E-1,8.3106875E-1,1.6058467E-1,-8.637394E-2,4.4473207E-1,-1.9183431E0,5.9861668E1,2.534118E0,-5.9930515E-1,8.172556E-2,-1.3174435E0,-2.3532458E-1,1.5244979E0,1.5244979E0,-2.5588673E-1,6.7383416E-2,-4.6268365E-1,6.799359E-1,-1.228193E0,7.3160124E-1,-5.8645736E-3,7.7141404E-1,-3.2948284E1,1.3166389E-1,5.652932E-2,6.3913244E-1,1.12468285E2,8.25916E1,6.202707E0,7.57506E-1,-1.1358361E-3,2.617984E-3,2.811265E-2,4.8175873E-3,1.6235447E-2,5.4061264E-3,-5.2884955E-2,-2.543114E-3,-2.0934997E-2,1.318935E-3,-8.28806E-3,-2.315043E-2,1.3438701E-3,-4.0119444E-3,2.1463905E-3,-7.4082017E-3,3.5090446E-2,-4.4343825E-2,9.070478E-3,4.026266E-2,-5.8916356E-2,-6.674081E-3,3.1515402E-3,-2.3049599E-2,6.496214E-2,1.2652789E-2,-1.6955083E-2,5.433355E-3,-5.1949676E-2,1.0956661E-3],"split_indices":[7,3,3,4,4,5,8,7,2,8,5,8,3,5,5,5,4,2,9,2,5,4,5,9,4,0,3,9,7,3,8,0,0,0,0,0,0,0,0,0,0,0,0,0,0,0,0,0,0,0,0,0,0,0,0,0,0,0,0,0,0],"split_type":[0,0,0,0,0,0,0,0,0,0,0,0,0,0,0,0,0,0,0,0,0,0,0,0,0,0,0,0,0,0,0,0,0,0,0,0,0,0,0,0,0,0,0,0,0,0,0,0,0,0,0,0,0,0,0,0,0,0,0,0,0],"sum_hessian":[5.6692113E4,5.521687E4,1.4752405E3,2.144387E4,3.3773004E4,1.0836178E2,1.3668787E3,1.9889768E4,1.554101E3,4.1110693E3,2.9661934E4,9.087378E1,1.7487999E1,1.8779138E2,1.1790873E3,1.9357904E4,5.3186456E2,1.5106956E3,4.340546E1,7.400632E2,3.3710063E3,1.6375922E4,1.3286012E4,8.658022E0,8.221575E1,2.6199062E0,1.4868093E1,1.7140665E2,1.6384731E1,1.1095029E3,6.95843E1,6.9964053E3,1.2361498E4,2.4155354E2,2.9031104E2,7.697915E2,7.4090405E2,2.2174168E1,2.1231293E1,6.603791E1,6.7402527E2,3.1409336E3,2.3007277E2,7.464462E3,8.91146E3,1.250532E4,7.806916E2,2.082924E0,6.575098E0,6.0944374E1,2.1271381E1,8.388684E0,6.479408E0,1.2447924E2,4.6927414E1,8.984748E0,7.399983E0,1.00258777E3,1.069152E2,4.621759E1,2.3366707E1],"tree_param":{"num_deleted":"0","num_feature":"10","num_nodes":"61","size_leaf_vector":"1"}},{"base_weights":[-1.7935428E-3,5.120562E-3,-2.0154454E-1,8.240719E-3,-2.1899165E-1,1.11557364E-1,-2.4683036E-1,1.3596268E-3,1.2429743E-1,-5.909762E-2,-3.1556132E-1,2.3615043E-1,-1.8868257E-1,-5.2828217E-1,-2.0064959E-1,1.6110085E-2,-3.0305162E-2,3.06496E-1,7.3451675E-2,-1.2561515E-1,8.6488825E-1,-1.4232557E-1,-5.1831496E-1,2.4161194E-2,7.030821E-1,-5.2286893E-1,-5.298709E-4,-5.8982015E-1,2.7694905E-1,-4.619095E-1,-1.3247605E-1,2.1474024E-2,6.318182E-4,-2.3920443E-3,6.2512667E-3,1.7649975E-2,-1.5364245E-2,2.2067307E-2,2.8458878E-3,-1.5526915E-2,3.451323E-3,-9.458478E-3,6.555771E-2,-3.0111596E-2,1.6386235E-3,-1.2267817E-2,-2.8986216E-2,-1.1380835E-2,1.2928373E-2,4.473509E-2,-5.610896E-3,-1.0426268E-2,-4.656238E-2,-2.245888E-2,1.0413323E-2,-3.1071523E-2,3.5351742E-2,-3.9173625E-2,4.9455564E-2,-1.3109899E-2,-3.0662343E-2,-1.5026146E-3,-2.1963479E-2],"categories":[],"categories_nodes":[],"categories_segments":[],"categories_sizes":[],"default_left":[0,0,0,0,0,0,0,0,0,0,0,0,0,0,0,0,0,0,0,0,0,0,0,0,0,0,0,0,0,0,0,0,0,0,0,0,0,0,0,0,0,0,0,0,0,0,0,0,0,0,0,0,0,0,0,0,0,0,0,0,0,0,0],"id":14,"left_children":[1,3,5,7,9,11,13,15,17,19,21,23,25,27,29,31,33,35,37,39,41,43,45,47,49,51,53,55,57,59,61,-1,-1,-1,-1,-1,-1,-1,-1,-1,-1,-1,-1,-1,-1,-1,-1,-1,-1,-1,-1,-1,-1,-1,-1,-1,-1,-1,-1,-1,-1,-1,-1],"loss_changes":[7.8543274E1,3.843883E1,2.7004974E1,4.329491E1,1.1636238E1,9.063729E0,2.1502861E1,2.3905361E1,2.8088783E1,1.765259E1,1.6447166E1,1.6893343E1,4.480773E0,1.1744934E1,2.5404903E1,5.013209E1,4.4309563E1,1.8996624E1,1.4413557E1,9.637203E0,9.32473E0,2.0556232E1,3.4840546E0,7.054326E0,8.428534E0,3.1010675E0,4.4584737E0,9.3535385E0,1.38202915E1,8.769798E0,3.566167E1,0E0,0E0,0E0,0E0,0E0,0E0,0E0,0E0,0E0,0E0,0E0,0E0,0E0,0E0,0E0,0E0,0E0,0E0,0E0,0E0,0E0,0E0,0E0,0E0,0E0,0E0,0E0,0E0,0E0,0E0,0E0,0E0],"parents":[2147483647,0,0,1,1,2,2,3,3,4,4,5,5,6,6,7,7,8,8,9,9,10,10,11,11,12,12,13,13,14,14,15,15,16,16,17,17,18,18,19,19,20,20,21,21,22,22,23,23,24,24,25,25,26,26,27,27,28,28,29,29,30,30],"right_children":[2,4,6,8,10,12,14,16,18,20,22,24,26,28,30,32,34,36,38,40,42,44,46,48,50,52,54,56,58,60,62,-1,-1,-1,-1,-1,-1,-1,-1,-1,-1,-1,-1,-1,-1,-1,-1,-1,-1,-1,-1,-1,-1,-1,-1,-1,-1,-1,-1,-1,-1,-1,-1],"split_conditions":[7.3160124E-1,7.387169E1,-1.7620816E0,1.4472787E-1,3.6424366E-1,3.091091E-1,-1.1649529E-1,4.7779948E-1,-1.0508841E0,5.667612E-1,7.763733E1,2.2154918E0,9.669864E-1,1.6894536E0,5.9565103E-1,-4.9856207E-1,4.1802496E-1,2.3430314E0,4.052201E-1,1.0285771E-1,3.5269982E-1,6.428773E-1,1.3166389E-1,9.277945E-1,7.959177E1,8.327054E-1,6.679162E1,8.2685417E-1,-7.2458076E-1,8.1693333E-1,1.2507726E0,2.1474024E-2,6.318182E-4,-2.3920443E-3,6.2512667E-3,1.7649975E-2,-1.5364245E-2,2.2067307E-2,2.8458878E-3,-1.5526915E-2,3.451323E-3,-9.458478E-3,6.555771E-2,-3.0111596E-2,1.6386235E-3,-1.2267817E-2,-2.8986216E-2,-1.1380835E-2,1.2928373E-2,4.473509E-2,-5.610896E-3,-1.0426268E-2,-4.656238E-2,-2.245888E-2,1.0413323E-2,-3.1071523E-2,3.5351742E-2,-3.9173625E-2,4.9455564E-2,-1.3109899E-2,-3.0662343E-2,-1.5026146E-3,-2.1963479E-2],"split_indices":[5,7,8,4,6,4,4,6,2,5,7,1,6,6,6,5,5,6,6,4,0,0,4,5,7,6,7,0,0,5,5,0,0,0,0,0,0,0,0,0,0,0,0,0,0,0,0,0,0,0,0,0,0,0,0,0,0,0,0,0,0,0,0],"split_type":[0,0,0,0,0,0,0,0,0,0,0,0,0,0,0,0,0,0,0,0,0,0,0,0,0,0,0,0,0,0,0,0,0,0,0,0,0,0,0,0,0,0,0,0,0,0,0,0,0,0,0,0,0,0,0,0,0,0,0,0,0,0,0],"sum_hessian":[5.686836E4,5.496674E4,1.9016233E3,5.421293E4,7.538053E2,2.4010393E2,1.6615194E3,5.1179473E4,3.0334587E3,2.844473E2,4.69358E2,1.6983821E2,7.026572E1,2.3272455E2,1.4287948E3,3.491531E4,1.6264163E4,6.607449E2,2.3727139E3,2.6615118E2,1.829611E1,2.540208E2,2.1533722E2,1.1753053E2,5.2307686E1,2.4669739E1,4.5595978E1,2.1645035E2,1.6274214E1,2.9448212E2,1.1343127E3,2.899407E2,3.4625367E4,1.4614932E4,1.6492313E3,6.146039E2,4.614096E1,1.0094326E2,2.2717705E3,1.3617755E2,1.2997363E2,5.6134734E0,1.2682636E1,6.937182E1,1.8464899E2,4.0465824E1,1.7487138E2,5.6679512E1,6.0851017E1,4.227453E1,1.0033157E1,1.4793373E1,9.876366E0,1.4115105E1,3.1480875E1,2.1180841E2,4.6419287E0,6.498181E0,9.776032E0,1.281294E2,1.6635272E2,8.512266E2,2.8308612E2],"tree_param":{"num_deleted":"0","num_feature":"10","num_nodes":"63","size_leaf_vector":"1"}},{"base_weights":[2.9872141E-3,4.3516975E-2,-3.128311E-2,2.8043529E-2,1.3210596E-1,-1.4271326E-1,-1.41916685E-2,1.5446995E-1,1.9929107E-2,2.6462188E-1,6.7323305E-2,-1.0336476E-1,-2.5845337E-1,-1.5495233E-1,3.0355663E-3,-5.8996433E-1,1.7476127E-1,-6.575674E-2,4.4086248E-2,3.865003E-1,5.8543734E-2,-7.970778E-1,8.177744E-2,-1.1841254E-1,1.4125282E-1,-4.133307E-1,-1.6250949E-1,-2.0323728E-1,3.3301432E-3,1.8084321E-2,-1.7544436E-1,-2.2674775E-2,-7.46443E-2,4.453631E-3,1.4657284E-2,4.075449E-3,-4.612821E-3,3.9028574E-3,-9.247493E-4,-5.0475127E-3,2.1462126E-2,9.60009E-3,-9.93453E-3,-6.672252E-2,-8.970436E-3,6.9088503E-3,-2.395231E-3,-6.7064585E-3,6.1568185E-3,1.2170575E-2,-6.260577E-2,-2.5789503E-2,1.4399811E-2,-6.6849305E-3,-4.7517207E-2,-6.5121786E-3,-1.7291894E-2,-4.104898E-3,9.646781E-3,6.116393E-3,3.4455318E-4,1.0110905E-2,-1.1012963E-2],"categories":[],"categories_nodes":[],"categories_segments":[],"categories_sizes":[],"default_left":[0,0,0,0,0,0,0,0,0,0,0,0,0,0,0,0,0,0,0,0,0,0,0,0,0,0,0,0,0,0,0,0,0,0,0,0,0,0,0,0,0,0,0,0,0,0,0,0,0,0,0,0,0,0,0,0,0,0,0,0,0,0,0],"id":15,"left_children":[1,3,5,7,9,11,13,15,17,19,21,23,25,27,29,31,33,35,37,39,41,43,45,47,49,51,53,55,57,59,61,-1,-1,-1,-1,-1,-1,-1,-1,-1,-1,-1,-1,-1,-1,-1,-1,-1,-1,-1,-1,-1,-1,-1,-1,-1,-1,-1,-1,-1,-1,-1,-1],"loss_changes":[7.886449E1,3.56555E1,5.859066E1,2.2717052E1,3.3186493E1,1.8605507E1,6.468545E1,2.0277811E1,4.3083096E1,3.1866638E1,3.253975E1,1.1261585E1,1.5347252E1,2.2231003E1,6.3840088E1,3.7178955E0,1.3170635E1,1.7871437E1,3.4517975E1,1.6661835E1,1.6276932E1,1.398016E1,1.871101E1,1.0943836E1,2.5569279E1,2.8615288E1,1.4449444E1,2.3154648E1,1.10447035E1,2.5576159E1,3.1325874E1,0E0,0E0,0E0,0E0,0E0,0E0,0E0,0E0,0E0,0E0,0E0,0E0,0E0,0E0,0E0,0E0,0E0,0E0,0E0,0E0,0E0,0E0,0E0,0E0,0E0,0E0,0E0,0E0,0E0,0E0,0E0,0E0],"parents":[2147483647,0,0,1,1,2,2,3,3,4,4,5,5,6,6,7,7,8,8,9,9,10,10,11,11,12,12,13,13,14,14,15,15,16,16,17,17,18,18,19,19,20,20,21,21,22,22,23,23,24,24,25,25,26,26,27,27,28,28,29,29,30,30],"right_children":[2,4,6,8,10,12,14,16,18,20,22,24,26,28,30,32,34,36,38,40,42,44,46,48,50,52,54,56,58,60,62,-1,-1,-1,-1,-1,-1,-1,-1,-1,-1,-1,-1,-1,-1,-1,-1,-1,-1,-1,-1,-1,-1,-1,-1,-1,-1,-1,-1,-1,-1,-1,-1],"split_conditions":[-7.658333E-2,9.106187E-2,-8.2518265E-2,2.721175E1,-3.2880502E0,3.6323082E-1,-7.639474E-2,-1.0086784E1,-2.9576585E-1,-1.0828352E0,3.698916E1,4.6745067E0,-1.6057941E-1,-8.488542E-2,7.14534E1,-1.4519156E0,-2.4802866E0,-9.577334E-1,-7.92377E-2,-1.0086784E1,2.8173023E-1,-2.679229E0,2.37004E-1,1.6370758E-1,5.6612656E1,9.148596E0,1.2507726E0,4.791674E-3,1.7832066E0,4.6845592E1,2.3274018E-1,-2.2674775E-2,-7.46443E-2,4.453631E-3,1.4657284E-2,4.075449E-3,-4.612821E-3,3.9028574E-3,-9.247493E-4,-5.0475127E-3,2.1462126E-2,9.60009E-3,-9.93453E-3,-6.672252E-2,-8.970436E-3,6.9088503E-3,-2.395231E-3,-6.7064585E-3,6.1568185E-3,1.2170575E-2,-6.260577E-2,-2.5789503E-2,1.4399811E-2,-6.6849305E-3,-4.7517207E-2,-6.5121786E-3,-1.7291894E-2,-4.104898E-3,9.646781E-3,6.116393E-3,3.4455318E-4,1.0110905E-2,-1.1012963E-2],"split_indices":[3,4,4,7,3,5,5,3,5,2,7,3,4,2,7,5,3,5,2,3,4,3,8,1,7,3,5,4,3,7,5,0,0,0,0,0,0,0,0,0,0,0,0,0,0,0,0,0,0,0,0,0,0,0,0,0,0,0,0,0,0,0,0],"split_type":[0,0,0,0,0,0,0,0,0,0,0,0,0,0,0,0,0,0,0,0,0,0,0,0,0,0,0,0,0,0,0,0,0,0,0,0,0,0,0,0,0,0,0,0,0,0,0,0,0,0,0,0,0,0,0,0,0,0,0,0,0,0,0],"sum_hessian":[5.677721E4,2.601286E4,3.076435E4,2.2146027E4,3.8668328E3,4.0902192E3,2.667413E4,1.3345823E3,2.0811445E4,1.2686552E3,2.5981775E3,3.0538765E3,1.0363427E3,2.907715E3,2.3766416E4,3.4667027E1,1.2999153E3,4.5765635E3,1.6234882E4,7.96635E2,4.720202E2,4.1840557E1,2.556337E3,2.8773884E3,1.7648822E2,3.9515533E2,6.411873E2,2.2278215E3,6.7989343E2,2.1919172E4,1.8472434E3,3.1420364E1,3.246664E0,7.551078E2,5.448075E2,6.9762146E2,3.878942E3,1.0522641E4,5.7122407E3,6.4112015E1,7.3252295E2,3.1094803E2,1.6107217E2,2.1754051E1,2.0086504E1,1.78149E3,7.748469E2,2.7020232E3,1.7536514E2,1.6520134E2,1.128689E1,3.4501535E2,5.013998E1,6.1969495E2,2.1492361E1,1.4748141E3,7.5300745E2,4.691028E2,2.107906E2,2.1244165E3,1.9794756E4,1.955764E2,1.651667E3],"tree_param":{"num_deleted":"0","num_feature":"10","num_nodes":"63","size_leaf_vector":"1"}},{"base_weights":[7.8232697E-4,6.050464E-3,-1.9790491E-1,-4.5097873E-2,1.8334951E-2,3.479943E-1,-2.1432549E-1,1.3498254E-1,-7.177247E-2,2.438449E-1,1.4988612E-2,5.6402355E-1,-6.1756337E-1,2.8268266E-2,-2.3522457E-1,2.7299523E-1,3.542585E-2,-4.8541952E-2,-2.2989309E-1,6.275241E-1,2.0552483E-1,-1.7491716E-3,5.839476E-2,-3.544997E-1,7.560457E-1,-1.1395285E0,5.1398855E-1,1.8067168E-1,-7.161954E-1,-2.1659677E-1,-5.4547304E-1,1.9233959E-2,-2.7448378E-4,9.169905E-3,-4.07147E-3,-3.651476E-2,-2.2457568E-3,3.0967295E-2,-1.2748283E-2,7.545744E-2,2.1688491E-2,1.0799791E-2,-5.0109267E-2,-4.4677997E-4,7.136228E-3,3.579401E-3,-4.917421E-3,9.539354E-3,-6.205339E-2,1.0125345E-2,4.9484443E-2,-7.659377E-3,-7.5978786E-2,-1.6313901E-2,5.5169284E-2,2.097278E-2,-1.301031E-2,4.027622E-2,-4.7126893E-2,5.2120533E-2,-1.1058728E-2,-4.378191E-2,1.0508239E-2],"categories":[],"categories_nodes":[],"categories_segments":[],"categories_sizes":[],"default_left":[0,0,0,0,0,0,0,0,0,0,0,0,0,0,0,0,0,0,0,0,0,0,0,0,0,0,0,0,0,0,0,0,0,0,0,0,0,0,0,0,0,0,0,0,0,0,0,0,0,0,0,0,0,0,0,0,0,0,0,0,0,0,0],"id":16,"left_children":[1,3,5,7,9,11,13,15,17,19,21,23,25,27,29,31,33,35,37,39,41,43,45,47,49,51,53,55,57,59,61,-1,-1,-1,-1,-1,-1,-1,-1,-1,-1,-1,-1,-1,-1,-1,-1,-1,-1,-1,-1,-1,-1,-1,-1,-1,-1,-1,-1,-1,-1,-1,-1],"loss_changes":[5.9343826E1,3.470412E1,1.3201756E1,5.139054E1,3.3604294E1,9.347853E0,7.2176514E0,1.8956406E1,3.421239E1,9.444389E0,3.1883839E1,6.5786657E0,5.526631E0,1.3029958E1,7.4502945E0,1.7988678E1,1.3900608E1,2.0056568E1,2.556459E1,9.362137E0,7.7217407E0,3.2886036E1,2.5263222E1,3.556676E0,3.6681194E0,2.0297084E0,2.009142E0,1.0129159E1,7.4834633E0,7.3603706E0,1.8525566E1,0E0,0E0,0E0,0E0,0E0,0E0,0E0,0E0,0E0,0E0,0E0,0E0,0E0,0E0,0E0,0E0,0E0,0E0,0E0,0E0,0E0,0E0,0E0,0E0,0E0,0E0,0E0,0E0,0E0,0E0,0E0,0E0],"parents":[2147483647,0,0,1,1,2,2,3,3,4,4,5,5,6,6,7,7,8,8,9,9,10,10,11,11,12,12,13,13,14,14,15,15,16,16,17,17,18,18,19,19,20,20,21,21,22,22,23,23,24,24,25,25,26,26,27,27,28,28,29,29,30,30],"right_children":[2,4,6,8,10,12,14,16,18,20,22,24,26,28,30,32,34,36,38,40,42,44,46,48,50,52,54,56,58,60,62,-1,-1,-1,-1,-1,-1,-1,-1,-1,-1,-1,-1,-1,-1,-1,-1,-1,-1,-1,-1,-1,-1,-1,-1,-1,-1,-1,-1,-1,-1,-1,-1],"split_conditions":[7.299072E1,-6.72335E-2,1.9597526E-1,2.8117546E1,-8.905084E-1,7.3153764E-1,-2.9682653E0,5.286411E-1,3.8354433E-1,-2.3157105E0,1.1518648E-1,3.8629276E-1,1.8299015E-1,1.4888495E2,1.5244979E0,-1.1032462E-1,-3.1569085E-1,2.1258618E-1,3.541629E-1,1.2722777E0,1.198913E0,1.4472787E-1,7.3160124E-1,3.6639545E1,-2.0649122E1,7.495833E1,7.959177E1,7.959177E1,2.3924021E-2,-1.3917868E-1,1.2845271E1,1.9233959E-2,-2.7448378E-4,9.169905E-3,-4.07147E-3,-3.651476E-2,-2.2457568E-3,3.0967295E-2,-1.2748283E-2,7.545744E-2,2.1688491E-2,1.0799791E-2,-5.0109267E-2,-4.4677997E-4,7.136228E-3,3.579401E-3,-4.917421E-3,9.539354E-3,-6.205339E-2,1.0125345E-2,4.9484443E-2,-7.659377E-3,-7.5978786E-2,-1.6313901E-2,5.5169284E-2,2.097278E-2,-1.301031E-2,4.027622E-2,-4.7126893E-2,5.2120533E-2,-1.1058728E-2,-4.378191E-2,1.0508239E-2],"split_indices":[7,4,6,7,5,8,8,6,5,8,5,1,6,9,5,4,4,6,6,6,1,4,5,9,9,7,7,7,4,4,9,0,0,0,0,0,0,0,0,0,0,0,0,0,0,0,0,0,0,0,0,0,0,0,0,0,0,0,0,0,0,0,0],"split_type":[0,0,0,0,0,0,0,0,0,0,0,0,0,0,0,0,0,0,0,0,0,0,0,0,0,0,0,0,0,0,0,0,0,0,0,0,0,0,0,0,0,0,0,0,0,0,0,0,0,0,0,0,0,0,0,0,0,0,0,0,0,0,0],"sum_hessian":[5.669334E4,5.5229906E4,1.463436E3,1.0695381E4,4.4534523E4,4.2144863E1,1.4212913E3,1.379346E3,9.316034E3,6.501332E2,4.388439E4,3.477935E1,7.3655095E0,1.1270261E2,1.3085886E3,5.7730365E2,8.020423E2,8.123819E3,1.192216E3,5.7639774E1,5.924934E2,3.1672256E4,1.2212135E4,5.8673224E0,2.891203E1,5.0356183E0,2.3298914E0,9.417983E1,1.8522778E1,1.236071E3,7.251753E1,4.1178116E2,1.6552254E2,3.536502E2,4.483921E2,4.1928448E1,8.08189E3,3.3509388E1,1.1587065E3,9.16194E0,4.8477837E1,5.8821466E2,4.2787404E0,3.0172357E4,1.4998986E3,1.126453E4,9.476052E2,4.1188264E0,1.7484959E0,9.135433E0,1.9776596E1,1.7908584E0,3.2447598E0,1.1445701E0,1.1853213E0,6.112338E1,3.3056454E1,2.0670362E0,1.645574E1,3.6567657E0,1.2324143E3,5.0356277E1,2.2161259E1],"tree_param":{"num_deleted":"0","num_feature":"10","num_nodes":"63","size_leaf_vector":"1"}},{"base_weights":[1.1428245E-3,7.5318776E-3,-1.8411525E-1,4.7796384E-2,-1.0379641E-2,-2.953436E-1,-3.7579004E-2,4.014343E-2,3.8444915E-1,-9.310449E-2,4.8603215E-3,9.397525E-1,-3.1853077E-1,-4.8059946E-1,3.6879953E-2,2.8248752E-2,2.0938313E-1,-7.308636E-1,4.6755567E-1,-1.03346676E-1,3.9195707E-1,-1.8370626E-2,4.9668394E-2,4.479407E-1,1.426041E0,-6.746612E-1,-2.7834585E-1,-7.9993474E-1,2.7678183E-1,1.0827351E-1,-4.18464E-1,-6.312416E-3,1.8483395E-3,1.2539789E-2,-1.885329E-2,1.257357E-2,-5.792695E-2,2.7864346E-2,7.80957E-4,-3.6313278E-3,-1.0045256E-2,9.058779E-4,3.88005E-2,-2.596127E-4,-8.927709E-3,3.2243524E-3,-1.02418605E-2,5.889196E-2,-4.6336003E-2,9.68861E-3,7.958062E-2,-5.19906E-3,-4.12962E-2,-8.129554E-3,-1.8264668E-2,-1.1451026E-2,-5.214959E-2,6.999683E-2,-7.580203E-3,1.2120659E-2,-6.53744E-3,1.9397704E-2,-2.9053668E-2],"categories":[],"categories_nodes":[],"categories_segments":[],"categories_sizes":[],"default_left":[0,0,0,0,0,0,0,0,0,0,0,0,0,0,0,0,0,0,0,0,0,0,0,0,0,0,0,0,0,0,0,0,0,0,0,0,0,0,0,0,0,0,0,0,0,0,0,0,0,0,0,0,0,0,0,0,0,0,0,0,0,0,0],"id":17,"left_children":[1,3,5,7,9,11,13,15,17,19,21,23,25,27,29,31,33,35,37,39,41,43,45,47,49,51,53,55,57,59,61,-1,-1,-1,-1,-1,-1,-1,-1,-1,-1,-1,-1,-1,-1,-1,-1,-1,-1,-1,-1,-1,-1,-1,-1,-1,-1,-1,-1,-1,-1,-1,-1],"loss_changes":[6.711797E1,3.953292E1,3.0800903E1,4.3465893E1,4.7831104E1,3.107241E1,2.6964203E1,3.3215187E1,3.510119E1,2.9362507E1,3.3350334E1,4.157465E0,1.4917328E1,2.866666E1,2.2810272E1,2.0774443E1,2.641005E1,1.1380752E1,1.416909E1,1.7310535E1,1.753861E1,4.4539883E1,4.126958E1,1.255848E1,1.6555309E0,9.091934E0,9.503624E0,1.1276772E1,1.7352661E1,1.9466442E1,1.2698647E1,0E0,0E0,0E0,0E0,0E0,0E0,0E0,0E0,0E0,0E0,0E0,0E0,0E0,0E0,0E0,0E0,0E0,0E0,0E0,0E0,0E0,0E0,0E0,0E0,0E0,0E0,0E0,0E0,0E0,0E0,0E0,0E0],"parents":[2147483647,0,0,1,1,2,2,3,3,4,4,5,5,6,6,7,7,8,8,9,9,10,10,11,11,12,12,13,13,14,14,15,15,16,16,17,17,18,18,19,19,20,20,21,21,22,22,23,23,24,24,25,25,26,26,27,27,28,28,29,29,30,30],"right_children":[2,4,6,8,10,12,14,16,18,20,22,24,26,28,30,32,34,36,38,40,42,44,46,48,50,52,54,56,58,60,62,-1,-1,-1,-1,-1,-1,-1,-1,-1,-1,-1,-1,-1,-1,-1,-1,-1,-1,-1,-1,-1,-1,-1,-1,-1,-1,-1,-1,-1,-1,-1,-1],"split_conditions":[7.3160124E-1,-7.1447957E-1,8.851445E-1,3.4377107E-1,-6.72335E-2,3.123135E-1,-1.6057941E-1,1.7296124E-1,-1.6057941E-1,1.3210765E0,1.1518648E-1,3.520483E-1,-7.6970607E-3,9.148596E0,5.023608E-1,2.2837193E-1,-1.1666291E0,4.0635365E-1,2.8173023E-1,2.6291091E0,3.8632221E0,5.6363696E-1,7.495833E1,-1.7698197E-1,6.019572E1,-5.816997E-1,8.672102E-1,8.672102E-1,-4.0648302E-1,1.2507726E0,-4.0536637E0,-6.312416E-3,1.8483395E-3,1.2539789E-2,-1.885329E-2,1.257357E-2,-5.792695E-2,2.7864346E-2,7.80957E-4,-3.6313278E-3,-1.0045256E-2,9.058779E-4,3.88005E-2,-2.596127E-4,-8.927709E-3,3.2243524E-3,-1.02418605E-2,5.889196E-2,-4.6336003E-2,9.68861E-3,7.958062E-2,-5.19906E-3,-4.12962E-2,-8.129554E-3,-1.8264668E-2,-1.1451026E-2,-5.214959E-2,6.999683E-2,-7.580203E-3,1.2120659E-2,-6.53744E-3,1.9397704E-2,-2.9053668E-2],"split_indices":[5,3,6,5,4,3,4,4,4,6,5,8,0,3,4,6,3,5,4,3,3,6,7,8,7,8,5,5,4,5,8,0,0,0,0,0,0,0,0,0,0,0,0,0,0,0,0,0,0,0,0,0,0,0,0,0,0,0,0,0,0,0,0],"split_type":[0,0,0,0,0,0,0,0,0,0,0,0,0,0,0,0,0,0,0,0,0,0,0,0,0,0,0,0,0,0,0,0,0,0,0,0,0,0,0,0,0,0,0,0,0,0,0,0,0,0,0,0,0,0,0,0,0,0,0,0,0,0,0],"sum_hessian":[5.6703332E4,5.4813906E4,1.889425E3,1.687586E4,3.7938047E4,1.0735394E3,8.158857E2,1.6501852E4,3.740087E2,5.9010635E3,3.2036984E4,1.905435E1,1.054485E3,1.1661112E2,6.992746E2,1.5419303E4,1.0825485E3,2.5395792E1,3.486129E2,5.779808E3,1.2125508E2,2.1098803E4,1.093818E4,1.0428521E1,8.625828E0,1.0531995E2,9.491651E2,8.1986786E1,3.4624336E1,6.051544E2,9.412018E1,8.228928E2,1.459641E4,1.0116801E3,7.0868385E1,7.827856E0,1.7567936E1,2.9066812E2,5.7944786E1,4.396988E3,1.3828206E3,6.19752E1,5.927988E1,1.94959E4,1.6029038E3,1.0337049E4,6.011309E2,6.9052467E0,3.5232747E0,1.2787819E0,7.347046E0,2.2420385E1,8.289957E1,4.083677E2,5.4079736E2,2.5061747E1,5.692504E1,8.933718E0,2.569062E1,3.8761188E2,2.1754253E2,1.5561454E1,7.855872E1],"tree_param":{"num_deleted":"0","num_feature":"10","num_nodes":"63","size_leaf_vector":"1"}},{"base_weights":[2.9349918E-4,3.9914235E-2,-3.3081565E-2,-5.3759597E-2,5.424161E-2,-1.2774234E-1,-1.9585364E-2,-1.2075175E-1,1.0941153E-1,3.919159E-2,1.2236482E-1,-1.3888995E-1,5.2789515E-1,-9.578409E-3,-1.5465263E-1,-5.566635E-2,-2.8674194E-1,2.7725577E-1,-3.1935617E-2,4.653052E-2,-1.1418813E-1,2.4746795E-1,6.193906E-2,-1.24796174E-1,-6.013631E-1,2.9044706E-1,1.1029966E0,-1.3734606E-1,2.9970205E-3,1.2589207E-1,-1.9511524E-1,-2.6419228E-2,-1.4854369E-3,-6.0678693E-3,-2.7988955E-2,-3.8904898E-2,1.600042E-2,-5.459244E-2,-6.97227E-4,2.102333E-3,2.3832442E-2,-2.020789E-2,-2.8455144E-4,2.1493705E-2,5.9775854E-3,1.3716434E-2,-4.4386063E-4,-7.8307325E-3,7.0240453E-4,5.46074E-2,-3.2445665E-2,2.2062538E-2,-6.390345E-2,-5.55931E-3,6.468295E-2,-3.43626E-3,-1.9151695E-2,-4.2962274E-5,1.2453574E-2,-1.8417627E-2,1.131887E-2,-3.0963039E-2,-7.8962175E-3],"categories":[],"categories_nodes":[],"categories_segments":[],"categories_sizes":[],"default_left":[0,0,0,0,0,0,0,0,0,0,0,0,0,0,0,0,0,0,0,0,0,0,0,0,0,0,0,0,0,0,0,0,0,0,0,0,0,0,0,0,0,0,0,0,0,0,0,0,0,0,0,0,0,0,0,0,0,0,0,0,0,0,0],"id":18,"left_children":[1,3,5,7,9,11,13,15,17,19,21,23,25,27,29,31,33,35,37,39,41,43,45,47,49,51,53,55,57,59,61,-1,-1,-1,-1,-1,-1,-1,-1,-1,-1,-1,-1,-1,-1,-1,-1,-1,-1,-1,-1,-1,-1,-1,-1,-1,-1,-1,-1,-1,-1,-1,-1],"loss_changes":[7.5025024E1,3.481825E1,3.9340534E1,3.7636295E1,2.3063591E1,2.8157944E1,3.6429665E1,2.6350079E1,2.378798E1,2.0751205E1,3.075829E1,2.455729E1,8.480757E0,4.0322483E1,2.1128967E1,2.151121E1,3.0961441E1,2.0927586E1,1.037737E1,3.3902676E1,2.6483793E1,3.0876808E1,4.1309296E1,1.6209507E1,9.687473E0,1.1675011E1,4.421154E0,3.7885513E1,2.1681305E1,1.17521715E1,2.5538818E1,0E0,0E0,0E0,0E0,0E0,0E0,0E0,0E0,0E0,0E0,0E0,0E0,0E0,0E0,0E0,0E0,0E0,0E0,0E0,0E0,0E0,0E0,0E0,0E0,0E0,0E0,0E0,0E0,0E0,0E0,0E0,0E0],"parents":[2147483647,0,0,1,1,2,2,3,3,4,4,5,5,6,6,7,7,8,8,9,9,10,10,11,11,12,12,13,13,14,14,15,15,16,16,17,17,18,18,19,19,20,20,21,21,22,22,23,23,24,24,25,25,26,26,27,27,28,28,29,29,30,30],"right_children":[2,4,6,8,10,12,14,16,18,20,22,24,26,28,30,32,34,36,38,40,42,44,46,48,50,52,54,56,58,60,62,-1,-1,-1,-1,-1,-1,-1,-1,-1,-1,-1,-1,-1,-1,-1,-1,-1,-1,-1,-1,-1,-1,-1,-1,-1,-1,-1,-1,-1,-1,-1,-1],"split_conditions":[-7.658333E-2,2.1723486E-1,-8.637394E-2,-2.213502E-1,8.677308E-2,1.5692177E0,7.14534E1,-3.0131731E-2,-4.699243E-3,1.2279532E0,-3.2880502E0,2.886257E0,4.914156E-1,-2.1257243E-1,2.9204297E-1,-1.5399499E0,-3.5334408E-1,-5.3659152E-2,-2.7346852E-1,8.533446E-1,-3.5269162E-1,4.4671146E1,4.3490532E-1,8.327054E-1,5.3182995E-1,9.5996805E-2,-3.0971046E1,-1.5853232E-1,1.0216906E0,4.101684E-2,3.6297947E-1,-2.6419228E-2,-1.4854369E-3,-6.0678693E-3,-2.7988955E-2,-3.8904898E-2,1.600042E-2,-5.459244E-2,-6.97227E-4,2.102333E-3,2.3832442E-2,-2.020789E-2,-2.8455144E-4,2.1493705E-2,5.9775854E-3,1.3716434E-2,-4.4386063E-4,-7.8307325E-3,7.0240453E-4,5.46074E-2,-3.2445665E-2,2.2062538E-2,-6.390345E-2,-5.55931E-3,6.468295E-2,-3.43626E-3,-1.9151695E-2,-4.2962274E-5,1.2453574E-2,-1.8417627E-2,1.131887E-2,-3.0963039E-2,-7.8962175E-3],"split_indices":[3,6,4,3,4,6,7,2,4,6,3,2,1,2,6,3,3,4,2,2,4,7,6,6,6,0,9,1,0,4,0,0,0,0,0,0,0,0,0,0,0,0,0,0,0,0,0,0,0,0,0,0,0,0,0,0,0,0,0,0,0,0,0],"split_type":[0,0,0,0,0,0,0,0,0,0,0,0,0,0,0,0,0,0,0,0,0,0,0,0,0,0,0,0,0,0,0,0,0,0,0,0,0,0,0,0,0,0,0,0,0,0,0,0,0,0,0,0,0,0,0,0,0,0,0,0,0,0,0],"sum_hessian":[5.6734367E4,2.593994E4,3.079443E4,3.4408115E3,2.2499129E4,3.841579E3,2.695285E4,2.4395007E3,1.00131067E3,1.8429248E4,4.06988E3,3.778129E3,6.3450287E1,2.5094688E4,1.8581614E3,1.7533433E3,6.861575E2,4.573106E2,5.440001E2,1.7588373E4,8.408742E2,1.3245297E3,2.74535E3,3.6676284E3,1.105004E2,4.597369E1,1.7476597E1,2.2477183E3,2.284697E4,2.3395302E2,1.6242083E3,9.02594E1,1.6630839E3,4.2821985E2,2.579376E2,1.7134851E1,4.4017575E2,8.083547E0,5.3591656E2,1.7407998E4,1.8037575E2,2.2821664E2,6.1265753E2,5.450039E2,7.795258E2,6.8576245E2,2.0595876E3,2.9837295E3,6.838991E2,2.4179015E0,1.0808249E2,4.2596928E1,3.3767636E0,2.4284582E0,1.5048139E1,1.7579897E3,4.8972855E2,2.2495438E4,3.515325E2,3.9078205E1,1.9487482E2,1.2967479E2,1.4945336E3],"tree_param":{"num_deleted":"0","num_feature":"10","num_nodes":"63","size_leaf_vector":"1"}},{"base_weights":[1.7333961E-3,3.222042E-2,-3.1837434E-2,3.599948E-2,-1.6879281E-1,-1.3966975E-1,-1.5294793E-2,2.742185E-1,3.2233767E-2,-5.144795E-1,-3.7970427E-2,-1.5296091E-1,3.6739004E-1,-1.5601106E-1,-5.3262296E-3,3.3723519E-3,4.8231155E-1,2.4491023E-2,1.4942238E-1,-2.2751485E-1,-7.267E-1,1.2330742E-1,-2.656804E-1,-3.136261E-1,-1.1707702E-1,-2.5619274E-2,6.4661926E-1,-2.2252284E-1,1.3523166E-1,4.226062E-3,-1.432096E-1,-1.3474345E-2,1.3657098E-2,3.0756935E-2,8.552868E-3,1.0454443E-3,1.3061519E-2,1.6434206E-2,3.6211623E-4,-8.152572E-3,-6.332668E-2,-5.119669E-2,-2.0591762E-2,4.045913E-3,3.845863E-2,-4.5908835E-2,-9.200453E-3,-6.8246135E-3,-3.0922333E-2,-7.7815033E-3,8.012137E-3,-3.579443E-2,9.6048135E-3,1.1402555E-2,4.4277288E-2,2.5601411E-2,-1.1726092E-2,-1.307738E-2,1.3927686E-2,-3.0764192E-2,3.146925E-4,-1.2986909E-2,6.6249105E-3],"categories":[],"categories_nodes":[],"categories_segments":[],"categories_sizes":[],"default_left":[0,0,0,0,0,0,0,0,0,0,0,0,0,0,0,0,0,0,0,0,0,0,0,0,0,0,0,0,0,0,0,0,0,0,0,0,0,0,0,0,0,0,0,0,0,0,0,0,0,0,0,0,0,0,0,0,0,0,0,0,0,0,0],"id":19,"left_children":[1,3,5,7,9,11,13,15,17,19,21,23,25,27,29,31,33,35,37,39,41,43,45,47,49,51,53,55,57,59,61,-1,-1,-1,-1,-1,-1,-1,-1,-1,-1,-1,-1,-1,-1,-1,-1,-1,-1,-1,-1,-1,-1,-1,-1,-1,-1,-1,-1,-1,-1,-1,-1],"loss_changes":[5.8005424E1,2.2568666E1,4.8113724E1,2.6144539E1,2.4774933E1,2.4233818E1,3.280479E1,2.5561626E1,2.603927E1,8.99659E0,1.4679318E1,2.0122025E1,1.0104743E1,2.9999493E1,2.8767054E1,1.4653637E1,1.0498749E1,2.2827156E1,4.533031E1,4.174835E0,7.629589E0,6.348236E0,8.659754E0,3.4351448E1,3.0600521E1,6.020522E0,5.1766243E0,1.1224384E1,1.6465088E1,2.61707E1,4.5497826E1,0E0,0E0,0E0,0E0,0E0,0E0,0E0,0E0,0E0,0E0,0E0,0E0,0E0,0E0,0E0,0E0,0E0,0E0,0E0,0E0,0E0,0E0,0E0,0E0,0E0,0E0,0E0,0E0,0E0,0E0,0E0,0E0],"parents":[2147483647,0,0,1,1,2,2,3,3,4,4,5,5,6,6,7,7,8,8,9,9,10,10,11,11,12,12,13,13,14,14,15,15,16,16,17,17,18,18,19,19,20,20,21,21,22,22,23,23,24,24,25,25,26,26,27,27,28,28,29,29,30,30],"right_children":[2,4,6,8,10,12,14,16,18,20,22,24,26,28,30,32,34,36,38,40,42,44,46,48,50,52,54,56,58,60,62,-1,-1,-1,-1,-1,-1,-1,-1,-1,-1,-1,-1,-1,-1,-1,-1,-1,-1,-1,-1,-1,-1,-1,-1,-1,-1,-1,-1,-1,-1,-1,-1],"split_conditions":[1.4398198E-1,1.6894536E0,-8.637394E-2,-1.2680007E0,-2.6584002E-1,1.4594078E0,-1.155257E-1,-4.278915E0,1.4472787E-1,-1.495266E1,-1.4022877E0,-1.9975084E-1,3.8632221E0,7.5604093E-1,7.3160124E-1,1.3210765E0,-4.5242653E0,8.533446E-1,-2.8218746E0,-1.6991201E-1,1.8393631E1,-1.6940181E0,-9.112658E-1,2.7823296E-1,8.327054E-1,-5.056028E-1,-2.0649122E1,-8.4474936E-2,-4.8069757E-1,8.170995E-2,9.4893247E-1,-1.3474345E-2,1.3657098E-2,3.0756935E-2,8.552868E-3,1.0454443E-3,1.3061519E-2,1.6434206E-2,3.6211623E-4,-8.152572E-3,-6.332668E-2,-5.119669E-2,-2.0591762E-2,4.045913E-3,3.845863E-2,-4.5908835E-2,-9.200453E-3,-6.8246135E-3,-3.0922333E-2,-7.7815033E-3,8.012137E-3,-3.579443E-2,9.6048135E-3,1.1402555E-2,4.4277288E-2,2.5601411E-2,-1.1726092E-2,-1.307738E-2,1.3927686E-2,-3.0764192E-2,3.146925E-4,-1.2986909E-2,6.6249105E-3],"split_indices":[3,6,4,5,4,6,5,2,4,9,2,4,3,6,5,6,3,2,3,2,9,2,2,5,6,4,9,4,5,6,6,0,0,0,0,0,0,0,0,0,0,0,0,0,0,0,0,0,0,0,0,0,0,0,0,0,0,0,0,0,0,0,0],"split_type":[0,0,0,0,0,0,0,0,0,0,0,0,0,0,0,0,0,0,0,0,0,0,0,0,0,0,0,0,0,0,0,0,0,0,0,0,0,0,0,0,0,0,0,0,0,0,0,0,0,0,0,0,0,0,0,0,0,0,0,0,0,0,0],"sum_hessian":[5.667299E4,2.9700662E4,2.6972328E4,2.9153396E4,5.4726434E2,3.5864973E3,2.3385832E4,4.5256116E2,2.8700836E4,1.4944263E2,3.9782172E2,3.495569E3,9.092826E1,1.5461217E3,2.1839709E4,1.9707364E2,2.5548752E2,2.6923207E4,1.7776283E3,6.441402E1,8.502861E1,2.3314964E2,1.6467206E2,6.367714E2,2.8587976E3,3.8146336E1,5.2781925E1,1.2588673E3,2.872545E2,2.042563E4,1.4140785E3,9.797628E1,9.909735E1,1.783855E2,7.710202E1,2.6522973E4,4.002347E2,7.856999E2,9.9192834E2,6.1740406E1,2.6736062E0,4.2580475E1,4.244814E1,2.1984608E2,1.3303563E1,1.71793E1,1.4749275E2,4.03653E2,2.3311842E2,2.5102598E3,3.4853787E2,8.598026E0,2.9548311E1,1.9890625E1,3.28913E1,1.9563461E1,1.2393038E3,7.600738E1,2.1124712E2,6.696293E1,2.0358668E4,9.9401404E2,4.2006448E2],"tree_param":{"num_deleted":"0","num_feature":"10","num_nodes":"63","size_leaf_vector":"1"}},{"base_weights":[2.604449E-3,7.5127794E-3,-1.597122E-1,3.1587407E-2,-1.5860684E-2,-2.0538713E-1,1.9537245E-1,2.6872428E-2,2.9220724E-1,-1.1031548E-1,-1.4352599E-3,-8.196463E-1,-1.7373694E-1,4.8018095E-1,-1.1583072E-1,2.9352702E-2,-2.6405248E-1,-7.3183125E-1,3.4776846E-1,-1.22112535E-1,5.185056E-1,-1.5774098E-1,6.6551906E-3,1.614788E-1,-1.0308402E0,1.0509582E-1,-2.1577273E-1,-3.3683997E-1,5.74113E-1,-3.4519842E-1,2.9789472E-1,1.1195049E-3,8.641682E-3,-2.6583853E-3,-2.436438E-2,-9.940873E-5,-7.874878E-2,1.8345397E-2,-5.0166268E-2,2.3828073E-4,-7.734386E-3,3.4763914E-2,-3.746286E-2,-9.661983E-3,1.0991803E-2,5.646996E-4,-1.0212357E-2,-5.435824E-2,2.4191163E-2,2.3886397E-2,-5.4443955E-2,1.2436824E-2,-8.265088E-3,-7.482479E-3,-2.5624832E-2,3.2105245E-2,-2.9118357E-2,3.245647E-2,-1.2666109E-2,1.8141763E-2,-3.692516E-2,2.2863304E-2,-6.10826E-2],"categories":[],"categories_nodes":[],"categories_segments":[],"categories_sizes":[],"default_left":[0,0,0,0,0,0,0,0,0,0,0,0,0,0,0,0,0,0,0,0,0,0,0,0,0,0,0,0,0,0,0,0,0,0,0,0,0,0,0,0,0,0,0,0,0,0,0,0,0,0,0,0,0,0,0,0,0,0,0,0,0,0,0],"id":20,"left_children":[1,3,5,7,9,11,13,15,17,19,21,23,25,27,29,31,33,35,37,39,41,43,45,47,49,51,53,55,57,59,61,-1,-1,-1,-1,-1,-1,-1,-1,-1,-1,-1,-1,-1,-1,-1,-1,-1,-1,-1,-1,-1,-1,-1,-1,-1,-1,-1,-1,-1,-1,-1,-1],"loss_changes":[4.524179E1,3.1016338E1,2.7072586E1,3.3357655E1,3.8106823E1,2.8578281E1,1.6938122E1,1.9252937E1,2.7701385E1,2.755054E1,3.0683691E1,1.5110241E1,1.6504387E1,7.8409595E0,8.816675E0,2.6416296E1,1.0592853E1,1.5472345E1,1.2218075E1,1.5036591E1,1.5855429E1,1.6047579E1,2.2572407E1,6.015626E0,5.7280693E0,7.2222643E0,2.3904922E1,2.9951687E0,5.7349796E0,1.6847734E1,8.619979E0,0E0,0E0,0E0,0E0,0E0,0E0,0E0,0E0,0E0,0E0,0E0,0E0,0E0,0E0,0E0,0E0,0E0,0E0,0E0,0E0,0E0,0E0,0E0,0E0,0E0,0E0,0E0,0E0,0E0,0E0,0E0,0E0],"parents":[2147483647,0,0,1,1,2,2,3,3,4,4,5,5,6,6,7,7,8,8,9,9,10,10,11,11,12,12,13,13,14,14,15,15,16,16,17,17,18,18,19,19,20,20,21,21,22,22,23,23,24,24,25,25,26,26,27,27,28,28,29,29,30,30],"right_children":[2,4,6,8,10,12,14,16,18,20,22,24,26,28,30,32,34,36,38,40,42,44,46,48,50,52,54,56,58,60,62,-1,-1,-1,-1,-1,-1,-1,-1,-1,-1,-1,-1,-1,-1,-1,-1,-1,-1,-1,-1,-1,-1,-1,-1,-1,-1,-1,-1,-1,-1,-1,-1],"split_conditions":[7.7141404E-1,1.5693947E-4,9.148596E0,3.8354433E-1,-7.639474E-2,-2.0985141E-1,1.5244979E0,1.0216906E0,-1.6057941E-1,4.6745067E0,-1.2679592E-1,-1.5092468E0,-1.6219999E0,8.672102E-1,8.512201E-1,1.6058467E-1,-6.779668E-1,4.9623146E1,3.176156E0,-2.7972588E-1,1.4335546E0,6.202707E0,7.622661E1,-4.6569744E-1,-1.6375153E0,2.8173023E-1,1.2507726E0,1.06740735E-1,4.178454E0,-1.7620816E0,8.25916E1,1.1195049E-3,8.641682E-3,-2.6583853E-3,-2.436438E-2,-9.940873E-5,-7.874878E-2,1.8345397E-2,-5.0166268E-2,2.3828073E-4,-7.734386E-3,3.4763914E-2,-3.746286E-2,-9.661983E-3,1.0991803E-2,5.646996E-4,-1.0212357E-2,-5.435824E-2,2.4191163E-2,2.3886397E-2,-5.4443955E-2,1.2436824E-2,-8.265088E-3,-7.482479E-3,-2.5624832E-2,3.2105245E-2,-2.9118357E-2,3.245647E-2,-1.2666109E-2,1.8141763E-2,-3.692516E-2,2.2863304E-2,-6.10826E-2],"split_indices":[5,3,3,5,5,4,5,0,4,3,4,8,8,5,8,4,8,7,1,5,8,3,7,3,1,4,5,0,8,8,7,0,0,0,0,0,0,0,0,0,0,0,0,0,0,0,0,0,0,0,0,0,0,0,0,0,0,0,0,0,0,0,0],"split_type":[0,0,0,0,0,0,0,0,0,0,0,0,0,0,0,0,0,0,0,0,0,0,0,0,0,0,0,0,0,0,0,0,0,0,0,0,0,0,0,0,0,0,0,0,0,0,0,0,0,0,0,0,0,0,0,0,0,0,0,0,0,0,0],"sum_hessian":[5.6783707E4,5.5117934E4,1.6657703E3,2.7151541E4,2.7966395E4,1.4762944E3,1.894758E2,2.6670145E4,4.813973E2,3.704357E3,2.4262037E4,7.111986E1,1.4051746E3,9.8649895E1,9.0825905E1,2.6445582E4,2.2456207E2,2.4148537E1,4.5724875E2,3.6369316E3,6.74252E1,1.1931005E3,2.3068938E4,1.263906E1,5.84808E1,1.8389014E2,1.2212844E3,9.905536E0,8.874436E1,5.8538197E1,3.2287704E1,2.522277E4,1.2228127E3,1.16112045E2,1.08450035E2,1.3481247E1,1.0667289E1,4.5158017E2,5.668604E0,7.431737E2,2.893758E3,5.9570465E1,7.8547397E0,1.0910148E3,1.02085724E2,2.257338E4,4.9555554E2,2.1065156E0,1.0532544E1,1.8986728E0,5.6582127E1,1.2014618E2,6.3743965E1,9.9995483E2,2.2132962E2,1.6623495E0,8.243186E0,8.1565056E1,7.1793056E0,2.0932549E1,3.7605648E1,2.985551E1,2.4321945E0],"tree_param":{"num_deleted":"0","num_feature":"10","num_nodes":"63","size_leaf_vector":"1"}},{"base_weights":[-4.0285755E-3,2.3091191E-2,-3.5298042E-2,-2.923027E-2,3.5389025E-2,-3.828293E-2,4.342872E-1,-1.0349677E-1,4.7453277E-2,5.9185937E-2,7.4045635E-3,-1.615079E-1,-2.6511917E-2,7.147488E-2,7.6401687E-1,-4.8287377E-2,-2.6077724E-1,1.0109275E-1,-1.6038455E-1,1.7966539E-1,3.4337416E-2,-6.9206986E-3,1.4969498E-1,-8.4534176E-2,-2.3493394E-1,-2.0055056E-2,-2.0019478E-1,-7.174239E-1,2.4035993E-1,-1.0442832E-1,8.585491E-1,-2.1907033E-2,-1.4613773E-3,-2.5066582E-3,-2.7386585E-2,-1.0333398E-2,6.4476826E-3,2.3661504E-2,-9.783733E-3,8.098826E-3,4.614472E-2,2.0364312E-2,1.5003729E-3,-6.933356E-4,1.3055371E-2,1.13126775E-2,-9.828849E-3,-8.441407E-3,7.0616426E-3,-5.756835E-3,-1.5695533E-2,-1.3930949E-3,6.3256393E-3,-1.1983848E-2,1.6244125E-2,2.4151795E-3,-5.41368E-2,4.1337002E-2,-3.7442017E-4,-4.7259044E-2,3.4845542E-2,5.155727E-2,1.73513E-2],"categories":[],"categories_nodes":[],"categories_segments":[],"categories_sizes":[],"default_left":[0,0,0,0,0,0,0,0,0,0,0,0,0,0,0,0,0,0,0,0,0,0,0,0,0,0,0,0,0,0,0,0,0,0,0,0,0,0,0,0,0,0,0,0,0,0,0,0,0,0,0,0,0,0,0,0,0,0,0,0,0,0,0],"id":21,"left_children":[1,3,5,7,9,11,13,15,17,19,21,23,25,27,29,31,33,35,37,39,41,43,45,47,49,51,53,55,57,59,61,-1,-1,-1,-1,-1,-1,-1,-1,-1,-1,-1,-1,-1,-1,-1,-1,-1,-1,-1,-1,-1,-1,-1,-1,-1,-1,-1,-1,-1,-1,-1,-1],"loss_changes":[4.80821E1,1.953878E1,3.692902E1,3.2918003E1,1.6372599E1,3.7953907E1,1.98541E1,2.5483686E1,3.1722624E1,3.9771908E1,2.3034582E1,1.2875729E1,2.6785862E1,1.0876105E1,7.238682E0,1.614532E1,4.6072086E1,1.9415615E1,1.3146923E1,2.9715294E1,1.7777782E1,1.9118843E1,2.7446306E1,2.1252235E1,1.1006699E1,2.6359245E1,1.7826797E1,4.085116E0,9.7320385E0,7.0187182E0,6.585163E0,0E0,0E0,0E0,0E0,0E0,0E0,0E0,0E0,0E0,0E0,0E0,0E0,0E0,0E0,0E0,0E0,0E0,0E0,0E0,0E0,0E0,0E0,0E0,0E0,0E0,0E0,0E0,0E0,0E0,0E0,0E0,0E0],"parents":[2147483647,0,0,1,1,2,2,3,3,4,4,5,5,6,6,7,7,8,8,9,9,10,10,11,11,12,12,13,13,14,14,15,15,16,16,17,17,18,18,19,19,20,20,21,21,22,22,23,23,24,24,25,25,26,26,27,27,28,28,29,29,30,30],"right_children":[2,4,6,8,10,12,14,16,18,20,22,24,26,28,30,32,34,36,38,40,42,44,46,48,50,52,54,56,58,60,62,-1,-1,-1,-1,-1,-1,-1,-1,-1,-1,-1,-1,-1,-1,-1,-1,-1,-1,-1,-1,-1,-1,-1,-1,-1,-1,-1,-1,-1,-1,-1,-1],"split_conditions":[1.8524873E-1,2.2610168E-1,1.5692177E0,-1.9382279E-1,4.8038426E-1,-1.1323516E-1,-8.70241E0,-1.4785895E-2,1.8228985E-2,-1.7911494E0,2.0546679E-1,2.2907262E0,2.2926976E-1,1.7106918E0,-2.2126565E0,-2.5983024E-1,-3.5334408E-1,-3.4025524E-2,-1.5017089E-1,3.8629276E-1,-1.0657389E0,1.1349828E0,-1.1666291E0,-1.7710803E-1,-2.73817E-1,8.207678E-1,3.0177493E0,-2.9682653E0,3.522606E0,1.1267861E0,3.4763807E-1,-2.1907033E-2,-1.4613773E-3,-2.5066582E-3,-2.7386585E-2,-1.0333398E-2,6.4476826E-3,2.3661504E-2,-9.783733E-3,8.098826E-3,4.614472E-2,2.0364312E-2,1.5003729E-3,-6.933356E-4,1.3055371E-2,1.13126775E-2,-9.828849E-3,-8.441407E-3,7.0616426E-3,-5.756835E-3,-1.5695533E-2,-1.3930949E-3,6.3256393E-3,-1.1983848E-2,1.6244125E-2,2.4151795E-3,-5.41368E-2,4.1337002E-2,-3.7442017E-4,-4.7259044E-2,3.4845542E-2,5.155727E-2,1.73513E-2],"split_indices":[3,6,6,3,6,4,9,2,4,3,4,3,4,3,2,0,3,4,2,1,1,2,3,0,8,6,8,8,3,8,4,0,0,0,0,0,0,0,0,0,0,0,0,0,0,0,0,0,0,0,0,0,0,0,0,0,0,0,0,0,0,0,0],"split_type":[0,0,0,0,0,0,0,0,0,0,0,0,0,0,0,0,0,0,0,0,0,0,0,0,0,0,0,0,0,0,0,0,0,0,0,0,0,0,0,0,0,0,0,0,0,0,0,0,0,0,0,0,0,0,0,0,0,0,0,0,0,0,0],"sum_hessian":[5.669725E4,3.036349E4,2.633376E4,5.778278E3,2.4585213E4,2.6168342E4,1.6541904E2,2.935223E3,2.843055E3,1.32861045E4,1.1299107E4,2.2806472E3,2.3887693E4,7.9337814E1,8.608122E1,2.173557E3,7.6166595E2,2.2602385E3,5.828163E2,2.2706243E3,1.101548E4,1.0266469E4,1.032638E3,1.1144756E3,1.1661716E3,2.3032549E4,8.5514606E2,1.341684E1,6.5920975E1,8.440029E0,7.76412E1,1.002867E2,2.0732703E3,4.3991394E2,3.21752E2,1.8709605E2,2.0731426E3,3.0093536E1,5.527227E2,2.219029E3,5.159502E1,1.253546E2,1.0890126E4,1.0008057E4,2.584129E2,8.4595026E2,1.8668771E2,8.1167505E2,3.028005E2,4.64319E2,7.018526E2,2.1868545E4,1.1640039E3,7.9584735E2,5.929867E1,4.6137576E0,8.8030815E0,1.8891123E1,4.702985E1,4.0311294E0,4.4089E0,5.7293575E1,2.0347618E1],"tree_param":{"num_deleted":"0","num_feature":"10","num_nodes":"63","size_leaf_vector":"1"}},{"base_weights":[-1.0130309E-3,3.9387406E-3,-1.4265552E-1,-4.797754E-2,1.6501425E-2,8.24358E-2,-1.749637E-1,1.3322756E-1,-7.103483E-2,8.146963E-3,9.576338E-2,2.1485902E-2,9.089234E-1,-4.4392243E-1,-1.2913033E-1,2.5300804E-1,4.5300834E-2,-1.2288768E0,-6.9140926E-2,1.8812131E-2,-5.6931134E-2,2.1195875E-1,5.656041E-2,2.3723361E-1,-1.7253938E-1,1.3722911E0,-3.2760954E-1,-1.0247266E0,-3.7064394E-1,4.936659E-3,-2.4599344E-1,1.5812887E-2,-4.268884E-3,7.521079E-3,-5.544312E-3,-7.002933E-2,2.9135872E-2,-2.6711633E-3,-1.0537209E-2,-1.4492946E-3,1.8879607E-3,-4.6304874E-3,7.704875E-3,5.024633E-3,1.40699465E-2,1.2397408E-2,1.0815606E-3,-9.908791E-3,1.7001428E-2,-3.0855E-2,5.9577525E-3,5.7024565E-3,7.7121675E-2,-4.9345016E-2,4.3028217E-2,-6.0781818E-2,-1.4814409E-2,2.1630911E-2,-2.4480872E-2,7.202112E-3,-7.2209775E-3,-1.4486129E-2,1.564536E-2],"categories":[],"categories_nodes":[],"categories_segments":[],"categories_sizes":[],"default_left":[0,0,0,0,0,0,0,0,0,0,0,0,0,0,0,0,0,0,0,0,0,0,0,0,0,0,0,0,0,0,0,0,0,0,0,0,0,0,0,0,0,0,0,0,0,0,0,0,0,0,0,0,0,0,0,0,0,0,0,0,0,0,0],"id":22,"left_children":[1,3,5,7,9,11,13,15,17,19,21,23,25,27,29,31,33,35,37,39,41,43,45,47,49,51,53,55,57,59,61,-1,-1,-1,-1,-1,-1,-1,-1,-1,-1,-1,-1,-1,-1,-1,-1,-1,-1,-1,-1,-1,-1,-1,-1,-1,-1,-1,-1,-1,-1,-1,-1],"loss_changes":[3.9751186E1,3.5716576E1,1.3936714E1,4.4588173E1,2.9197023E1,1.2119398E1,2.0584167E1,1.2676769E1,2.0672188E1,2.7687103E1,1.9139309E1,9.478314E0,9.918527E0,9.97892E0,2.2438108E1,1.0937588E1,1.1443434E1,5.606161E0,2.1024628E1,3.1040318E1,4.230551E1,8.178406E0,2.101905E1,4.864071E0,1.55411005E1,2.4388733E0,5.0104947E0,3.352991E0,2.1015568E1,1.3897746E1,1.8790989E1,0E0,0E0,0E0,0E0,0E0,0E0,0E0,0E0,0E0,0E0,0E0,0E0,0E0,0E0,0E0,0E0,0E0,0E0,0E0,0E0,0E0,0E0,0E0,0E0,0E0,0E0,0E0,0E0,0E0,0E0,0E0,0E0],"parents":[2147483647,0,0,1,1,2,2,3,3,4,4,5,5,6,6,7,7,8,8,9,9,10,10,11,11,12,12,13,13,14,14,15,15,16,16,17,17,18,18,19,19,20,20,21,21,22,22,23,23,24,24,25,25,26,26,27,27,28,28,29,29,30,30],"right_children":[2,4,6,8,10,12,14,16,18,20,22,24,26,28,30,32,34,36,38,40,42,44,46,48,50,52,54,56,58,60,62,-1,-1,-1,-1,-1,-1,-1,-1,-1,-1,-1,-1,-1,-1,-1,-1,-1,-1,-1,-1,-1,-1,-1,-1,-1,-1,-1,-1,-1,-1,-1,-1],"split_conditions":[7.14534E1,-6.72335E-2,2.9204297E-1,2.721175E1,7.654256E-1,1.4862282E0,4.4293848E-1,5.286411E-1,1.9352204E-1,5.45491E-1,8.576016E-1,8.533446E-1,4.4623734E1,7.196564E-1,1.8009114E-1,-8.668722E-1,-3.055277E0,7.923093E-3,1.2690959E0,2.3264642E-1,1.5463267E-1,7.9756755E-1,-2.3290205E0,7.218715E1,2.5544712E-1,-4.326483E1,4.9909482E2,3.6297947E-1,3.370087E-1,-3.4279466E-1,2.6435828E0,1.5812887E-2,-4.268884E-3,7.521079E-3,-5.544312E-3,-7.002933E-2,2.9135872E-2,-2.6711633E-3,-1.0537209E-2,-1.4492946E-3,1.8879607E-3,-4.6304874E-3,7.704875E-3,5.024633E-3,1.40699465E-2,1.2397408E-2,1.0815606E-3,-9.908791E-3,1.7001428E-2,-3.0855E-2,5.9577525E-3,5.7024565E-3,7.7121675E-2,-4.9345016E-2,4.3028217E-2,-6.0781818E-2,-1.4814409E-2,2.1630911E-2,-2.4480872E-2,7.202112E-3,-7.2209775E-3,-1.4486129E-2,1.564536E-2],"split_indices":[7,4,6,7,6,2,0,6,6,6,6,2,9,1,4,1,2,0,2,6,4,6,2,7,6,9,9,0,6,8,8,0,0,0,0,0,0,0,0,0,0,0,0,0,0,0,0,0,0,0,0,0,0,0,0,0,0,0,0,0,0,0,0],"split_type":[0,0,0,0,0,0,0,0,0,0,0,0,0,0,0,0,0,0,0,0,0,0,0,0,0,0,0,0,0,0,0,0,0,0,0,0,0,0,0,0,0,0,0,0,0,0,0,0,0,0,0,0,0,0,0,0,0,0,0,0,0,0,0],"sum_hessian":[5.667378E4,5.476035E4,1.9134303E3,1.066862E4,4.409173E4,2.3997444E2,1.6734558E3,1.2037422E3,9.464878E3,3.9888465E4,4.2032676E3,2.2444835E2,1.55261E1,2.4238861E2,1.4310673E3,5.0877396E2,6.9496826E2,1.4398592E1,9.450479E3,3.4272508E4,5.6159565E3,1.0592638E3,3.144004E3,1.06169624E2,1.1827872E2,1.1214053E1,4.312047E0,2.570076E1,2.1668785E2,6.6692236E2,7.6414484E2,4.2870712E2,8.0066826E1,4.1541364E2,2.7955463E2,1.335923E1,1.039362E0,8.507537E3,9.429415E2,9.728864E3,2.4543645E4,4.804261E3,8.1169525E2,4.0753372E2,6.5173004E2,4.8429654E2,2.6597073E3,2.0100763E1,8.606886E1,4.6418476E1,7.1860245E1,1.5347248E0,9.679329E0,2.8821852E0,1.429862E0,1.983386E1,5.8668985E0,2.7613838E1,1.8907402E2,3.453293E2,3.2159302E2,7.091422E2,5.5002644E1],"tree_param":{"num_deleted":"0","num_feature":"10","num_nodes":"63","size_leaf_vector":"1"}},{"base_weights":[-6.9072103E-4,4.4491854E-3,-1.6805047E-1,2.4693573E-2,-2.0143041E-2,-2.4100839E-1,3.9710045E-2,2.0112794E-2,2.1268386E-1,-2.309922E-2,3.7822923E-1,-2.0098375E-1,-6.4772457E-1,1.7109877E-1,-4.446467E-1,3.3065915E-2,-2.7620146E-2,-1.3453382E-1,3.0973968E-1,-1.344256E-1,-1.2657922E-2,1.3100863E-1,8.43367E-1,-3.0047417E-1,-5.4592956E-2,-7.713629E-1,-1.05868414E-1,-2.5092718E-1,3.08141E-1,-9.9651825E-1,-9.685287E-2,8.2184095E-3,1.3027157E-3,-7.584152E-3,5.3339126E-4,3.8404763E-2,-1.4944466E-2,2.6438138E-2,5.4026553E-3,-7.427984E-2,-6.4109648E-3,-1.08324895E-2,-2.6313655E-4,-1.2972756E-2,1.795124E-2,-4.1504588E-2,4.7409475E-2,5.1226076E-2,-1.601143E-2,-1.940889E-2,2.3972045E-3,1.0365734E-2,-4.5547947E-2,-5.751725E-2,1.8565979E-2,-2.0571083E-2,1.2222513E-2,3.2370523E-2,1.0772817E-2,-5.626434E-2,2.5664514E-2,9.224652E-3,-2.1431081E-2],"categories":[],"categories_nodes":[],"categories_segments":[],"categories_sizes":[],"default_left":[0,0,0,0,0,0,0,0,0,0,0,0,0,0,0,0,0,0,0,0,0,0,0,0,0,0,0,0,0,0,0,0,0,0,0,0,0,0,0,0,0,0,0,0,0,0,0,0,0,0,0,0,0,0,0,0,0,0,0,0,0,0,0],"id":23,"left_children":[1,3,5,7,9,11,13,15,17,19,21,23,25,27,29,31,33,35,37,39,41,43,45,47,49,51,53,55,57,59,61,-1,-1,-1,-1,-1,-1,-1,-1,-1,-1,-1,-1,-1,-1,-1,-1,-1,-1,-1,-1,-1,-1,-1,-1,-1,-1,-1,-1,-1,-1,-1,-1],"loss_changes":[4.8777428E1,2.7389673E1,2.56199E1,2.598073E1,2.926223E1,2.0228035E1,2.8075748E1,1.821474E1,2.4227257E1,2.8660938E1,2.0936575E1,1.658728E1,7.3945656E0,2.0135538E1,1.797646E1,2.1327915E1,2.987167E1,2.3592375E1,2.4733406E1,1.753949E1,3.4009377E1,1.0838875E1,1.1897282E1,1.8087696E1,1.5838425E1,1.2580727E1,1.13382225E1,6.9034286E0,8.107016E0,7.63356E0,5.573885E0,0E0,0E0,0E0,0E0,0E0,0E0,0E0,0E0,0E0,0E0,0E0,0E0,0E0,0E0,0E0,0E0,0E0,0E0,0E0,0E0,0E0,0E0,0E0,0E0,0E0,0E0,0E0,0E0,0E0,0E0,0E0,0E0],"parents":[2147483647,0,0,1,1,2,2,3,3,4,4,5,5,6,6,7,7,8,8,9,9,10,10,11,11,12,12,13,13,14,14,15,15,16,16,17,17,18,18,19,19,20,20,21,21,22,22,23,23,24,24,25,25,26,26,27,27,28,28,29,29,30,30],"right_children":[2,4,6,8,10,12,14,16,18,20,22,24,26,28,30,32,34,36,38,40,42,44,46,48,50,52,54,56,58,60,62,-1,-1,-1,-1,-1,-1,-1,-1,-1,-1,-1,-1,-1,-1,-1,-1,-1,-1,-1,-1,-1,-1,-1,-1,-1,-1,-1,-1,-1,-1,-1,-1],"split_conditions":[7.7141404E-1,1.8524873E-1,1.0216906E0,3.3459142E-1,1.3210765E0,1.5244979E0,5.023608E-1,6.1815786E-1,5.8735865E-1,-1.155257E-1,4.6745067E0,8.450333E-1,1.8728942E0,7.145674E-1,-2.3115707E1,-1.2679592E-1,7.005961E-1,-8.496828E-1,8.851445E-1,-8.905084E-1,-1.4894912E-1,-1.9975084E-1,-5.2860657E1,4.192145E-1,-1.307958E-1,3.2342887E0,-5.076127E-1,1.605068E0,1.5463267E-1,5.159831E0,4.893248E0,8.2184095E-3,1.3027157E-3,-7.584152E-3,5.3339126E-4,3.8404763E-2,-1.4944466E-2,2.6438138E-2,5.4026553E-3,-7.427984E-2,-6.4109648E-3,-1.08324895E-2,-2.6313655E-4,-1.2972756E-2,1.795124E-2,-4.1504588E-2,4.7409475E-2,5.1226076E-2,-1.601143E-2,-1.940889E-2,2.3972045E-3,1.0365734E-2,-4.5547947E-2,-5.751725E-2,1.8565979E-2,-2.0571083E-2,1.2222513E-2,3.2370523E-2,1.0772817E-2,-5.626434E-2,2.5664514E-2,9.224652E-3,-2.1431081E-2],"split_indices":[5,3,0,5,6,5,4,6,6,5,3,6,6,6,9,4,6,3,6,5,4,4,9,3,4,3,0,0,4,8,3,0,0,0,0,0,0,0,0,0,0,0,0,0,0,0,0,0,0,0,0,0,0,0,0,0,0,0,0,0,0,0,0],"split_type":[0,0,0,0,0,0,0,0,0,0,0,0,0,0,0,0,0,0,0,0,0,0,0,0,0,0,0,0,0,0,0,0,0,0,0,0,0,0,0,0,0,0,0,0,0,0,0,0,0,0,0,0,0,0,0,0,0,0,0,0,0,0,0],